#ifndef WISDM_WT_H
#define WISDM_WT_H

// Model weights
#define LAYER_0_WT {0.20173071324825287, -0.45432916283607483, 0.0008184919133782387, -0.41946926712989807, 0.5058988928794861, -0.2384045124053955, 0.09744111448526382, 0.752893328666687, 0.13062937557697296, -0.11599714308977127, 0.6734334230422974, 1.3782528638839722, -0.08812181651592255, -0.24951159954071045, 0.38164350390434265, 0.11569435149431229, -0.30774521827697754, 0.3383252024650574, 0.005275452043861151, 0.5100599527359009, 0.10116034746170044, 0.3806754946708679, 0.25887274742126465, -0.2716597616672516, 0.21986982226371765, 0.9647784233093262, 0.3170703649520874, -0.02852928265929222, -0.053318727761507034, -0.39135369658470154, -0.1893513798713684, -0.18425633013248444, 0.4920176863670349, -0.3335566222667694, 0.15006917715072632, -0.545903205871582, 0.4889961779117584, 0.7290623784065247, -0.08850844204425812, 0.24903903901576996, 0.807330846786499, 0.00511386152356863, -0.38040661811828613, -0.32168281078338623, -0.7443206310272217, -0.9136723279953003, -1.3905020952224731, 0.08077941834926605, -1.0897353887557983, 1.1858118772506714, -0.601584792137146, -0.7867336273193359, -0.2909373641014099, -0.6974993944168091, -0.11824729293584824, -0.8528279662132263, 0.5887311100959778, 0.08844615519046783, 0.8273967504501343, 1.0515940189361572, -0.8310075998306274, 0.8953520059585571, 0.29737475514411926, 0.18627990782260895, -0.5443169474601746, -0.7332165241241455, 0.4064130187034607, 0.8172802925109863, 0.847283661365509, -0.027095027267932892, -0.8920111060142517, 0.716403603553772, -0.8134844899177551, 1.6672043800354004, -0.17166438698768616, 1.020477533340454, 0.6537333130836487, -0.34134483337402344, 0.5783187747001648, -0.13207663595676422, 0.3087068498134613, 0.22012300789356232, 0.5313129425048828, -0.07239249348640442, -0.9638177156448364, 1.5668998956680298, -0.6498875617980957, 0.03840585798025131, 0.2708393335342407, 1.1947400569915771, -1.0169835090637207, -1.9304277896881104, -0.7644174695014954, 0.24315112829208374, 0.6495940089225769, 0.0037215689662843943, 0.5011220574378967, -0.6876376271247864, -0.7747222185134888, -0.05761190876364708, -0.1382305771112442, -0.1477549970149994, 0.810768187046051, -0.012210402637720108, -1.2628618478775024, -1.2490659952163696, -0.8059334754943848, -0.42887237668037415, -0.7145611047744751, 0.7828518152236938, -0.11191882938146591, 0.43084070086479187, -0.32809391617774963, 0.21463392674922943, -0.7102800011634827, 0.7958891987800598, -0.5830117464065552, -0.5551321506500244, 0.6303038597106934, 0.1944306343793869 }
#define LAYER_1_WT { -0.4127921164035797, 0.017409028485417366, 0.24643340706825256, -0.24719764292240143, 0.17913350462913513, 0.6023460030555725, -0.1518547534942627, 0.17203813791275024, -0.3009398281574249, 0.06091131642460823, -0.3986758589744568, -0.1514827013015747, 0.09537208080291748, 0.15323323011398315, 0.21953514218330383, 0.14339672029018402, 0.10815520584583282, 0.23609955608844757, -0.0976092666387558, -0.2334771603345871, 0.16549353301525116, -0.37860867381095886, 0.24289816617965698, -0.11182594299316406, -0.28058844804763794, -0.0437791533768177, -0.12203563004732132, 0.4171878695487976, -0.14206340909004211, -0.031881872564554214, 0.44881176948547363, -0.02305796556174755, -0.23278023302555084, -0.3012639582157135, 0.2787373661994934, 0.028178779408335686, 0.27746090292930603, -0.3018336892127991, 0.1525009423494339, 0.26586249470710754, -0.2489711344242096, -0.23400522768497467, -0.13794203102588654, -0.1162528321146965, 0.04710886999964714, 0.20426686108112335, 0.12928630411624908, -0.10768860578536987, -0.008114180527627468, -0.22080236673355103, -0.036107756197452545, 0.2547530233860016, 0.12781797349452972, -0.08557064086198807, -0.0501767173409462, -0.22098025679588318, -0.4610362648963928, -0.01775471121072769, -0.14025521278381348, -0.5061936974525452, -0.2617182433605194, 0.00246677384711802, 0.05521753057837486, -0.04041186347603798, 0.07501208037137985, 0.20167629420757294, 0.18962426483631134, 0.2976417541503906, 0.20136086642742157, -0.047502730041742325, 0.10011265426874161, -0.12657898664474487, -0.08889207243919373, -0.10186667740345001, 0.200336292386055, 0.12036281824111938, 0.025687450543045998, -0.1143479272723198, 0.24657602608203888, -0.026123730465769768, -0.14131425321102142, -0.19198033213615417, -0.13797959685325623, 0.0954262912273407, -0.0008651942480355501, 0.1887250393629074, 0.060547102242708206, -0.12767767906188965, -0.08013126254081726, 0.22661295533180237, 0.072358138859272, -0.0518188402056694, 0.1601288765668869, 0.027913205325603485, 0.28243541717529297, -0.16912730038166046, 0.10375063866376877, 0.04157852381467819, 0.02625175565481186, -0.11764764785766602, -0.21146456897258759, -0.17299869656562805, -0.20115703344345093, -0.23065590858459473, -0.14160391688346863, 0.06330333650112152, 0.24548467993736267, -0.04412687197327614, -0.2730658948421478, 0.07905273139476776, 0.09055941551923752, 0.18554745614528656, 0.08484605699777603, 0.06936828792095184, -0.05830350145697594, -0.08145835995674133, 0.051937445998191833, 0.32208189368247986, 0.07795380800962448, 0.0057183438912034035, -0.026823293417692184, -0.10212016850709915, 0.17734982073307037, -0.43165796995162964, 0.08796242624521255, 0.014849039725959301, 0.061295755207538605, -0.18360328674316406, 0.11143606156110764, 0.19607846438884735, -0.07984527945518494, 0.049929238855838776, -0.30016621947288513, -0.5145105123519897, -0.07347196340560913, 0.25251612067222595, -0.16725435853004456, -0.024449743330478668, 0.4295492172241211, 0.01198086142539978, 0.1175258606672287, 0.18664585053920746, 0.17436599731445312, 0.04908618703484535, -0.19386692345142365, -0.3267349600791931, 0.0865873321890831, -0.24762724339962006, 0.24207229912281036, 0.43018728494644165, 0.0739477127790451, 0.12546242773532867, 0.926270067691803, -0.4458889365196228, -0.010847284458577633, -0.3332226872444153, -0.039496228098869324, -0.16052742302417755, -0.30362340807914734, -0.1416793316602707, -0.26373225450515747, 0.07854149490594864, -0.29025113582611084, -0.12818410992622375, 0.12669996917247772, -0.14761951565742493, 0.13423308730125427, -0.22652263939380646, -0.23849216103553772, 0.1696384847164154, -0.07204927504062653, -0.22407476603984833, -0.13488516211509705, 0.22917135059833527, 0.4797804653644562, 0.011434580199420452, -0.564245879650116, 0.13323728740215302, -0.28880923986434937, 0.3081456124782562, 0.11089716851711273, -0.19485801458358765, 0.19247278571128845, -0.3756921887397766, -0.43643486499786377, 0.023034129291772842, 0.3301904499530792, 0.046104609966278076, -0.24742090702056885, 0.21277467906475067, 0.2899176776409149, -0.0964699238538742, 0.6748361587524414, 0.07602818310260773, -0.3299056887626648, 0.13578853011131287, 0.21188989281654358, -0.7940011620521545, 0.03201950341463089, -0.20287054777145386, -0.14654885232448578, -0.36686593294143677, 0.27589577436447144, -0.09578743577003479, -0.09809640049934387, 0.0828796774148941, -0.2600348889827728, -0.34570860862731934, -0.10431117564439774, -0.18019872903823853, 0.450251042842865, 0.08251166343688965, 0.15588726103305817, 0.36678779125213623, -0.021326668560504913, 0.14530828595161438, 0.9591313004493713, -0.5622745156288147, 0.15405859053134918, -0.39164966344833374, 0.2191006988286972, -0.14708997309207916, -0.6169225573539734, -0.14465995132923126, -0.26320880651474, 0.28192123770713806, 0.19017146527767181, 0.17441019415855408, -0.14059984683990479, 0.36777299642562866, -0.18027067184448242, 0.11317199468612671, -0.15966390073299408, 0.1810012310743332, -0.20416498184204102, -0.19894321262836456, 0.03794601559638977, 0.07265680283308029, 0.39393433928489685, 0.0052907709032297134, -0.144527405500412, -0.24944132566452026, -0.15410861372947693, 0.29575517773628235, -0.02241293154656887, -0.21680641174316406, 0.2309444546699524, -0.09036125987768173, 0.44804784655570984, 0.0921081081032753, 0.28462350368499756, 0.1494796723127365, -0.12461631000041962, 0.29906368255615234, 0.1951531171798706, -0.1586577296257019, 0.15073029696941376, 0.09923224151134491, -0.10078781098127365, 0.07155799120664597, -0.08249499648809433, -0.5033618211746216, 0.21697786450386047, 0.11553052067756653, 0.052088040858507156, -0.21244430541992188, -0.027535509318113327, 0.20777790248394012, -0.04110733047127724, 0.13016843795776367, 0.3667372465133667, 0.1612633764743805, -0.3148479163646698, -0.09675991535186768, 0.021210573613643646, -0.026447679847478867, 0.02205500565469265, 0.290947288274765, 0.12989094853401184, -0.2188475877046585, 0.42664745450019836, -0.384630411863327, 0.3216688930988312, -0.08847282826900482, -0.03930634632706642, -0.014024985022842884, -0.21756330132484436, -0.2900354266166687, -0.584480881690979, -0.04055512696504593, -0.236183762550354, -0.11994079500436783, 0.009903773665428162, 0.7033562660217285, 0.020446116104722023, 0.039722733199596405, 0.20162062346935272, 0.4129232168197632, -0.534146249294281, 0.08439455181360245, -0.19636231660842896, 0.2133457511663437, -0.034009020775556564, -0.09499615430831909, -0.15287810564041138, -0.2576715052127838, -0.03146303445100784, -0.0026285771746188402, 0.10872244089841843, -0.562441885471344, -0.11443067342042923, 0.08958794921636581, -1.1467825174331665, 0.573776125907898, -0.21999035775661469, 0.6348673701286316, 0.07628991454839706, -0.29578638076782227, 0.5124189853668213, -0.002976866438984871, 0.23306691646575928, -0.1572258025407791, -0.02051418647170067, 0.18527843058109283, -0.117405965924263, -0.4972923994064331, 0.23948714137077332, -0.037463992834091187, 0.12640589475631714, -0.06507739424705505, 0.09330541640520096, 0.062158942222595215, 0.211332306265831, -0.1305033266544342, 0.17251677811145782, 0.04732132703065872, -0.2696164846420288, -0.21872538328170776, 0.12440594285726547, 0.3468443751335144, 0.055855657905340195, 0.10844137519598007, 0.1321966052055359, 0.18900971114635468, 0.9205334186553955, -0.3359258770942688, -0.020379168912768364, -0.11891305446624756, -0.0941978320479393, 0.07061218470335007, -0.14444813132286072, -0.014437330886721611, -0.22593379020690918, 0.15054143965244293, -0.19480952620506287, 0.18673329055309296, -0.2191462516784668, -0.2861398756504059, -0.0105909937992692, 0.19760972261428833, 0.2322218269109726, 0.13218657672405243, -0.045524414628744125, -0.0937214344739914, 0.13315540552139282, -0.17889399826526642, 0.1130218431353569, 0.075003482401371, 0.2096453607082367, -0.1959819197654724, -0.06540141254663467, -0.16911061108112335, 0.07311009615659714, -0.05756765976548195, -0.14313672482967377, -0.3075944781303406, 1.3288694620132446, 0.28730854392051697, -0.07933232188224792, -0.1606636643409729, 0.18439123034477234, -0.2035938799381256, 0.01613292656838894, -0.28003016114234924, 0.22013968229293823, 0.03951920196413994, -0.18827399611473083, -0.20001019537448883, -0.290745347738266, -0.33573195338249207, -0.13538260757923126, 0.17326773703098297, 0.2429753988981247, 0.05691990628838539, 0.37656158208847046, -0.18530766665935516, -0.14421863853931427, 0.1646517515182495, -0.0300670824944973, 0.08196500688791275, 0.2237931787967682, -0.11417818814516068, 0.13966457545757294, 0.16028040647506714, 0.14144855737686157, 0.4777427315711975, -0.13282310962677002, -0.10601689666509628, 0.42048484086990356, -0.4122670292854309, -0.24318638443946838, -0.20801465213298798, 0.14586271345615387, -0.12595859169960022, 0.06221539527177811, 0.08569741994142532, 0.22701182961463928, -0.10037758201360703, 0.034903816878795624, 0.2790442407131195, -0.024568520486354828, -0.5191770195960999, -0.03655967116355896, -0.18639236688613892, 0.17489619553089142, -0.283277302980423, 0.19742262363433838, -0.21482788026332855, 0.15834124386310577, -0.18789216876029968, 0.05907469242811203, -0.15005457401275635, -0.0008836604538373649, 0.2174159735441208, 0.11443980038166046, -0.18523387610912323, -0.03914899006485939, 0.13183513283729553, -0.12011129409074783, 0.021538525819778442, -0.02803710289299488, -0.2536200284957886, 0.02005881816148758, 0.026433678343892097, 0.2628994584083557, 0.07942206412553787, -0.25999385118484497, 0.2358710914850235, -0.1504533886909485, -0.247260183095932, 0.053551435470581055, -0.06297661364078522, -0.09760025143623352, 0.10454978048801422, -0.17988768219947815, -0.048258040100336075, -0.07751714438199997, 0.14549808204174042, -0.3142865300178528, 0.033072374761104584, -0.22689031064510345, 0.2125290334224701, 0.18809494376182556, 0.19911491870880127, -0.36726459860801697, 0.22803199291229248, 0.17731323838233948, -0.1717747151851654, 0.006644403096288443, -0.11276184767484665, -0.13841141760349274, -0.2741728723049164, -0.03817467764019966, 0.13900823891162872, -0.11033201217651367, 0.5819923877716064, 0.05630046874284744, -0.18189877271652222, 0.09916607290506363, -0.20689934492111206, -0.053124506026506424, -0.09295893460512161, -0.08757205307483673, -0.22438226640224457, -0.3108353018760681, -0.3708357512950897, 0.09644462168216705, -0.09214647114276886, -0.12728603184223175, -0.065704345703125, 0.40614375472068787, -0.038851503282785416, -0.12571093440055847, 0.012359105050563812, -0.05753106251358986, 0.07982901483774185, -0.19702516496181488, -0.007303054444491863, -0.022646944969892502, 0.09961973130702972, 0.11894438415765762, 0.45323020219802856, 0.08848749846220016, 0.12371738255023956, 0.4731738865375519, -0.3149332106113434, 0.029282432049512863, 0.05017128214240074, -0.030686357989907265, 0.228528693318367, -0.10742739588022232, -0.0003663126553874463, -0.19368623197078705, -0.24197818338871002, -0.10771383345127106, -0.2109767198562622, -0.01659121736884117, 0.43223339319229126, -0.2720184624195099, -0.0485895536839962, -0.17535217106342316, 0.16763433814048767, -0.060767557471990585, 0.25099897384643555, 0.1458391547203064, 0.17776654660701752, 0.23179343342781067, 0.007892535999417305, -0.0924871563911438, 0.2546490728855133, 0.07179568707942963, -0.17113853991031647, 0.10566110908985138, -0.1069800928235054, 0.03473106399178505, 0.11596260964870453, -0.5414869785308838, 0.35590144991874695, 0.22244717180728912, 0.06571093946695328, 0.2653298079967499, -0.2912200689315796, 0.32778608798980713, 0.11308889091014862, 0.18654417991638184, -0.11842659115791321, -0.128662571310997, 0.24387885630130768, 0.2371351718902588, -0.09194456785917282, -0.10087671130895615, 0.0017943659331649542, 0.125093474984169, 0.2426028549671173, -0.07487046718597412, -0.005561075173318386, 0.25485002994537354, 0.2445915788412094, 0.006740547250956297, 0.1984061598777771, 0.2635749578475952, 0.08285457640886307, 0.07776159793138504, -0.08978386223316193, 0.13217243552207947, 0.23893634974956512, 0.04602010175585747, 0.31331542134284973, 0.34600794315338135, -0.1410224586725235, -0.0025853582192212343, 0.17013156414031982, 0.161461740732193, 0.09763352572917938, -0.21932817995548248, -0.18993334472179413, 0.14991608262062073, -0.08360136300325394, 0.009525119327008724, -0.12725085020065308, 0.03603767603635788, 0.2805476188659668, 0.13884446024894714, 0.23048186302185059, 0.2222130000591278, -0.14901801943778992, -0.11809373646974564, 0.18844249844551086, -0.15439718961715698, -0.23422576487064362, -0.47903168201446533, -0.22222010791301727, 0.4859265387058258, -0.051499053835868835, -0.32900840044021606, -0.33132404088974, 0.03033672645688057, 0.05827214941382408, 0.30363526940345764, 0.2270958572626114, -0.003339964896440506, -0.24824486672878265, -0.22263194620609283, 0.24584905803203583, -0.014305799268186092, -0.2686515152454376, 0.033927325159311295, -0.07538481056690216, -0.3803083002567291, 0.2429494559764862, 0.2904365062713623, -0.061317555606365204, 0.2642926573753357, 0.776043176651001, -0.14216217398643494, 0.18799087405204773, -0.024300551041960716, 0.3518076241016388, -0.012110011652112007, -0.02555748261511326, 0.1457146406173706, -0.2747839391231537, -0.12222912162542343, 0.17482030391693115, -0.25040730834007263, 0.13479799032211304, -0.30948907136917114, 0.013019784353673458, -0.14223454892635345, -0.507129430770874, 0.05412553995847702, -0.09301293641328812, -0.12402088940143585, 0.5579517483711243, 0.015234844759106636, 0.46963366866111755, -0.2290872186422348, -0.15396137535572052, 0.15557384490966797, 0.04123001918196678, 0.29847097396850586, -0.26859962940216064, -0.14955845475196838, 0.1564503312110901, -0.32427260279655457, -0.5470864176750183, 0.21372568607330322, 0.08321410417556763, -0.2866818904876709, -0.397357702255249, 0.22375743091106415, -0.2724451422691345, -0.06868493556976318, 0.16262197494506836, -0.0829065665602684, -0.18476979434490204, 0.07350859045982361, 0.09325409680604935, -0.06876879185438156, 0.2676788568496704, -0.13581478595733643, 0.023080211132764816, -0.2553809583187103, 0.13536939024925232, 0.3706023693084717, 0.016088835895061493, 0.14448606967926025, -0.4093814790248871, -0.04800533875823021, 0.15652556717395782, -0.15945473313331604, -0.02417641691863537, -0.44011998176574707, 0.002760474104434252, -0.05397530272603035, 0.03554539382457733, -0.07924580574035645, 0.6005672812461853, -0.047340672463178635, 0.12513433396816254, 0.10029446333646774, 0.3372269868850708, -0.47499880194664, 0.0938701182603836, 0.09658697247505188, -0.23623667657375336, -0.2791012227535248, 0.29255300760269165, -0.15095126628875732, -0.1993078589439392, -0.24311542510986328, 0.14383281767368317, -0.06702914088964462, -0.06742147356271744, 0.09930343925952911, -0.05997495725750923, -0.1772737205028534, 0.12246143817901611, 0.11245329678058624, 0.43923890590667725, 0.18862836062908173, 0.07793518900871277, 0.2656237781047821, -0.029998494312167168, -0.12870827317237854, 0.2512083649635315, -0.14350126683712006, 0.21175485849380493, -0.05210217833518982, 0.3871088922023773, 0.1308055967092514, -0.2277785837650299, -0.21382291615009308, 0.034933365881443024, -0.30943065881729126, -0.0430719256401062, -0.22380763292312622, -0.022344790399074554, 0.19921083748340607, 0.11660399287939072, -0.05336831882596016, 0.22014868259429932, 0.056557200849056244, 0.22713463008403778, -0.0625322014093399, -0.45806241035461426, 0.24029982089996338, 0.10146403312683105, -0.27918756008148193, 0.45300009846687317, 0.24820812046527863, 0.4297286868095398, 0.2712549865245819, 0.26123300194740295, 0.4757934510707855, -0.025807956233620644, -0.05132875218987465, -0.12117819488048553, -0.169081911444664, -0.22307643294334412, -0.1115124374628067, -0.01584777981042862, -0.04510565847158432, 0.307362824678421, 0.30306506156921387, -0.13107676804065704, 0.37209823727607727, 0.11703736335039139, 0.27755698561668396, -0.06274419277906418, -0.1109340488910675, 0.16374999284744263, 0.323799729347229, -0.0840955302119255, 0.16341131925582886, -0.13548502326011658, 0.0362902507185936, 0.3468749523162842, -0.006055736914277077, 0.20746757090091705, -0.15514548122882843, 0.13022857904434204, -0.06860943138599396, 0.38460400700569153, 0.19245029985904694, -0.21126070618629456, -0.26294174790382385, -0.19824950397014618, 0.4729602336883545, 0.23552104830741882, -0.18871918320655823, -0.2751392126083374, 0.19431906938552856, -0.46418297290802, 0.13936011493206024, -0.1921471357345581, -0.21722471714019775, -0.26780998706817627, 0.5478411316871643, 0.08255674690008163, 0.16972790658473969, 0.18490765988826752, -0.2524060904979706, -0.010026901960372925, 0.316972017288208, -0.20409131050109863, 0.26809003949165344, -0.09409655630588531, -0.24822761118412018, 0.3985106945037842, 0.046337421983480453, 0.21989335119724274, 0.8695794939994812, -0.4092654287815094, -0.15599603950977325, -0.23964199423789978, -0.2364082634449005, -0.09872543066740036, -0.058097295463085175, 0.25982362031936646, 0.23399609327316284, 0.0803459957242012, -0.23497812449932098, -0.20398712158203125, -0.15652167797088623, -0.41681885719299316, 0.15271888673305511, -0.3566105365753174, -0.052440013736486435, -0.0773610845208168, 0.3297925889492035, 0.0841640904545784, -0.05601038783788681, -0.20028337836265564, 0.1985929161310196, -0.2754562199115753, -0.2609086036682129, 0.11842108517885208, 0.30000510811805725, -0.24577176570892334, 0.09939907491207123, 0.12757505476474762, 0.13227473199367523, -0.0033038496039807796, 1.242637038230896, 0.06895621865987778, -0.19754500687122345, -0.4094769358634949, -0.22840766608715057, 0.13598297536373138, -0.2016402930021286, -0.1229991465806961, -0.17500364780426025, -0.27787044644355774, -0.11176279187202454, -0.13904306292533875, -0.07855398207902908, -0.08933071792125702, -0.1008831337094307, -0.2445187270641327, -0.01973096653819084, 0.13208559155464172, -0.16769491136074066, -0.12946981191635132, -0.23995496332645416, 0.196723073720932, -0.20824608206748962, -0.14983047544956207, 0.11179926246404648, -0.1547648012638092, -0.18481352925300598, 0.1665196418762207, -0.030652645975351334, -0.03968639671802521, 0.03566505387425423, -0.23257878422737122, 0.2216571420431137, 0.059460725635290146, 0.073912613093853, -0.2548789083957672, -0.21551202237606049, 0.26571598649024963, 0.2474542260169983, -0.08700244873762131, -0.01414449792355299, -0.25207197666168213, -0.156874880194664, -0.3059377670288086, -0.04543565213680267, 0.1506231427192688, -0.20852749049663544, -0.13337194919586182, -0.0067978487350046635, -0.1676952838897705, -0.05076587200164795, 0.10202029347419739, 0.2146652191877365, -0.2869894206523895, -0.27482956647872925, 0.018770281225442886, 0.2861241102218628, -0.21424613893032074, -0.1191457062959671, 0.1799784004688263, -0.003119084984064102, -0.21983753144741058, 0.27591830492019653, 0.28815987706184387, -0.3129989206790924, 0.08461493253707886, -0.09208898991346359, 0.1790505200624466, 0.11210912466049194, -0.12079495191574097, -0.02107403241097927, 0.15275807678699493, -0.03070922940969467, -0.03817279264330864, 0.2923051416873932, 0.06897492706775665, 0.020422091707587242, 0.05135289207100868, -0.18208454549312592, -0.22738564014434814, 0.03221539407968521, -0.0625387653708458, -0.29824429750442505, 0.16808438301086426, 0.18191248178482056, -0.04800257086753845, -0.17730186879634857, 0.05865985527634621, 0.4529271721839905, -0.0030783223919570446, -0.13565096259117126, 0.17404811084270477, 0.1225685104727745, 0.12937484681606293, -0.09993025660514832, 0.3786765933036804, -0.23381227254867554, 0.17652319371700287, 0.2124009132385254, 0.04061713442206383, 0.16675519943237305, 0.12044220417737961, 0.03396550938487053, -0.08958274126052856, -0.004884263966232538, 0.18074949085712433, -0.2729053199291229, 0.003873843466863036, -0.18677005171775818, -0.0640285313129425, -0.1834155023097992, -0.02586539089679718, -0.02782595343887806, 0.18356287479400635, -0.3061653673648834, 0.11349042505025864, 0.2424488514661789, -0.05985791236162186, 0.32742008566856384, -0.2066691368818283, -0.1757889986038208, -0.18602611124515533, -0.11229971051216125, 0.029184045270085335, 0.13583315908908844, -0.2336774617433548, -0.09544650465250015, -0.14902782440185547, -0.5327327847480774, 0.19122187793254852, 0.20984481275081635, -0.12032635509967804, -0.1807781457901001, 0.24797025322914124, -0.10833105444908142, 0.12532290816307068, 0.5160561203956604, 0.14574868977069855, -0.016618724912405014, -0.11057896167039871, -0.15593492984771729, -0.5697289705276489, -0.23300950229167938, 0.23827818036079407, 0.10579289495944977, -0.3446524739265442, 0.46769168972969055, 0.2668691873550415, -0.020848840475082397, -0.12762266397476196, -0.05707917734980583, 0.01962354965507984, -0.13225626945495605, 0.24403271079063416, 0.25568798184394836, 0.10255316644906998, 0.1976803094148636, 0.4868600070476532, 0.2556169331073761, -0.06759881973266602, 0.3438323140144348, -0.21689948439598083, -0.21947330236434937, 0.08967001736164093, 0.12267019599676132, 0.19930070638656616, -0.2702599763870239, -0.10902170836925507, -0.3639039993286133, 0.19139835238456726, 0.16021575033664703, -0.22196625173091888, 0.2896827757358551, 0.6203043460845947, 0.16621415317058563, 0.244276762008667, 0.19971191883087158, 0.16779883205890656, -0.20050622522830963, -0.00890540424734354, 0.27250996232032776, 0.021945778280496597, 0.20444701611995697, -0.14287124574184418, 0.08412705361843109, -0.08865530788898468, -0.3482968807220459, 0.006844646763056517, -0.08869024366140366, -0.004308262374252081, 0.09693563729524612, 0.09810556471347809, -0.43526482582092285, 0.3929166793823242, 0.10180824249982834, 0.15033665299415588, -0.13898955285549164, -0.30153200030326843, -0.06330066919326782, -0.08031965792179108, 0.28829461336135864, 0.10608076304197311, -0.04233675077557564, -0.1897864192724228, -0.16023574769496918, -0.4690547585487366, 0.2878756821155548, 0.07935439795255661, 0.028513360768556595, -0.13802288472652435, -0.07131367921829224, 0.006893789395689964, -0.01047817338258028, -0.22589334845542908, 0.3368417024612427, -0.3414194881916046, -0.16033630073070526, 0.09391812235116959, 0.16213975846767426, -0.1280968338251114, -0.0008803559467196465, 0.3227466940879822, 0.11005042493343353, -0.2080603837966919, 0.6856935620307922, -0.0683143213391304, -0.02877538651227951, 0.06582901626825333, 0.016539311036467552, -0.012926257215440273, -0.12153075635433197, -0.1304277777671814, -0.40681496262550354, 0.2947181761264801, -0.17312125861644745, 0.2079676389694214, -0.15302182734012604, 0.7172868847846985, -0.15030023455619812, 0.20758742094039917, 0.0014566709287464619, 0.2566894292831421, -0.5481402277946472, -0.17644622921943665, 0.19090422987937927, 0.07897945493459702, -0.22293758392333984, 0.19068700075149536, 0.1264241635799408, -0.22733110189437866, -0.19218939542770386, -0.2795565128326416, 0.17323271930217743, -0.6202927231788635, 0.3376641869544983, 0.18038950860500336, -1.0729613304138184, 0.39854323863983154, 0.027992291375994682, 0.15005777776241302, 0.2395133376121521, 0.0656924694776535, 0.5389345288276672, 0.09464912861585617, 0.3012494146823883, 0.08310757577419281, 0.28209155797958374, -0.02178362011909485, -0.09796253591775894, 0.017953086644411087, -0.1224372386932373, -0.21563521027565002, 0.02532978355884552, 0.11782410740852356, 0.23051171004772186, -0.022947682067751884, -0.171219602227211, -0.2165834903717041, -0.2142142951488495, -0.2599913477897644, 0.2524588108062744, -0.03732284903526306, 0.003369379322975874, 0.14033143222332, -0.21174868941307068, 0.021192599087953568, 0.28755149245262146, 0.22848618030548096, 0.48610979318618774, -0.21151821315288544, 0.02742181159555912, -0.2895708978176117, -0.20063164830207825, -0.017921030521392822, -0.2923623323440552, -0.03250371664762497, -0.2008773535490036, 0.231980100274086, -0.22617101669311523, 0.02470526285469532, -0.02890069968998432, 0.4167313277721405, -0.051997311413288116, 0.3098052442073822, -0.04280409589409828, -0.11670058965682983, -0.42412006855010986, 0.08835543692111969, 0.04087711125612259, -0.2869761884212494, 0.13122476637363434, 0.3223280906677246, 0.08988539129495621, 0.04227042943239212, -0.3865530490875244, 0.14133797585964203, 0.23028051853179932, -0.4066489040851593, 0.10499097406864166, -0.03171587362885475, -1.0440887212753296, 0.2965604364871979, -0.23537316918373108, 0.15303735435009003, -0.13827092945575714, 0.2412761151790619, 0.4228181540966034, 0.2656335234642029, -0.18832756578922272, 0.187096506357193, -0.034488823264837265, -0.1321355104446411, 0.19651301205158234, 0.2606232166290283, 0.10256945341825485, 0.14041444659233093, 0.07837142050266266, -0.10375584661960602, 0.006811782252043486, 0.1173887848854065, -0.29142796993255615, 0.21128049492835999, 0.07807621359825134, 0.2497156709432602, -0.05418345704674721, -0.11829569190740585, 0.006399879697710276, 0.030852962285280228, 0.28388822078704834, -0.12506301701068878, 0.09228029102087021, 0.005325842183083296, 0.13970035314559937, 0.4087338149547577, -0.09133534133434296, 0.07140335440635681, -0.1554843634366989, 0.15367436408996582, 0.37479168176651, 0.11413425207138062, -0.17757391929626465, 0.007989611476659775, 0.14626233279705048, -0.07290904968976974, -0.2559424936771393, -0.27021846175193787, 0.2814111113548279, -0.1301548033952713, 0.03646112233400345, 0.12317661941051483, -0.019159875810146332, -0.257320374250412, 0.14302575588226318, -0.10300329327583313, -0.02637590281665325, -0.2567034661769867, -0.21938392519950867, -0.1976318508386612, 0.223965585231781, 0.05308292433619499, -0.10225998610258102, -0.08000671863555908, -0.02745291218161583, 0.11196102946996689, 0.7054576277732849, -0.25824418663978577, 0.019503599032759666, 0.2270561307668686, -0.0007722976733930409, -0.21936769783496857, -0.11614207178354263, -0.2635820806026459, -0.23956212401390076, -0.004412828478962183, 0.12864473462104797, -0.21274380385875702, 0.02547825314104557, 0.26385897397994995, 0.04475858435034752, -0.18903250992298126, 0.29377058148384094, 0.3012864887714386, 0.11123483628034592, 0.2178988754749298, -0.0460013709962368, 0.11838193982839584, 0.12802161276340485, -0.005650450941175222, -0.20328207314014435, -0.14185671508312225, -0.14162816107273102, 0.01895204372704029, -0.2031651735305786, -0.3465065360069275, -0.19880393147468567, -0.23158027231693268, -0.6157463788986206, 0.4838073253631592, -0.2448241412639618, 0.41932758688926697, 0.12404534965753555, 0.168366938829422, 0.2782842516899109, 0.18938978016376495, -0.04406334459781647, -0.2256181538105011, -0.1531631499528885, 0.2365276962518692, -0.2780746817588806, 0.1050470769405365, 0.0068709272891283035, -0.16075091063976288, 0.03437582775950432, -0.18770098686218262, -0.17175579071044922, 0.1500600278377533, -0.10047513246536255, 0.2279849648475647, -0.21682584285736084, -0.01921304315328598, 0.19911828637123108, 0.1988724172115326, -0.25564128160476685, -0.04670347645878792, -0.20923689007759094, 0.07177677750587463, 0.26347681879997253, -0.15243692696094513, 0.12950558960437775, -0.1864149123430252, -0.15508365631103516, 0.4807472229003906, -0.006817345041781664, -0.04070590063929558, -0.17485453188419342, 0.2105923891067505 }
#define LAYER_2_WT {-1.0709080696105957, -0.03689540922641754, 0.17497758567333221, -0.24168041348457336, 0.22898343205451965, -1.4519511461257935, -0.4457437992095947, 0.26295211911201477, 0.5381575226783752, 0.4037952125072479, -1.0199453830718994, 0.32591816782951355, 0.141155406832695, -0.0957629457116127, -0.9446662664413452, 0.26862195134162903, 1.0679771900177002, 0.020774463191628456, -0.5050230026245117, -0.2886107563972473, 0.002265472197905183, -1.146854043006897, 0.17951717972755432, 0.7182866930961609, 2.350719451904297, 1.1336705684661865, -0.3284265100955963, -1.2207685708999634, 0.3182408809661865, -0.2927136719226837, 0.932309091091156, 0.3194017708301544 }

// Model bias
#define LAYER_0_BS {-0.7517204880714417, -0.09291799366474152, -0.11914634704589844, 0.36858758330345154, 0.6914442777633667, -0.5045338869094849, 1.2658894062042236, -0.5394502282142639, 0.46070608496665955, -1.3124312162399292, 0.5412049293518066, 0.3331393599510193, 0.6573050618171692, 0.49421295523643494, -0.45225536823272705, 0.5164571404457092, -0.4736815094947815, 0.22819949686527252, 0.18800371885299683, -0.9500458836555481, 0.4293915629386902, -0.6806175708770752, -0.7641453742980957, 0.35100704431533813, 0.9152657389640808, 0.5865577459335327, -0.20861603319644928, -0.148397758603096, -0.06773532927036285, -0.311744749546051, 0.8273134827613831, -0.5294243097305298, 0.4218108057975769, -1.18613600730896, 0.4019274413585663, -0.8204022645950317, -0.42675507068634033, 0.13648556172847748, -0.5944518446922302, 0.021228531375527382}
#define LAYER_1_BS {0.41538944840431213, 0.0786978229880333, 0.03656027093529701, -0.11112207919359207, -0.011888120323419571, 0.027705790475010872, -0.12286018580198288, 0.10010185092687607, 0.2751683294773102, -0.15211208164691925, 0.5378625392913818, 0.020597422495484352, 0.12258616089820862, -0.06717037409543991, -0.4054369330406189, 0.011142268776893616, 0.5001698136329651, -0.08233977854251862, 0.09922359883785248, -0.16650260984897614, 0.09494149684906006, 0.4260062277317047, 0.08448650687932968, 0.302274614572525, 0.29126518964767456, -0.4809056222438812, -0.2135048806667328, 0.44736412167549133, 0.13254766166210175, -0.1418851613998413, -0.27785927057266235, 0.0031589593272656202 }
#define LAYER_2_BS {1.082505702972412}

#endif