#ifndef CAR_WR_H
#define CAR_WR

#define LAYER_0_WT { 1.7199517488479614, -0.40106773376464844, -0.09452713280916214, -0.5701419115066528, -0.038012973964214325, 0.0900602862238884, 0.31793898344039917, -0.09291093051433563, 0.3121550679206848, -0.10418754816055298, -0.2834838628768921, -0.07573509216308594, 0.6794005036354065, -0.009446075186133385, -2.5881588459014893, -0.19722920656204224, 0.5231496691703796, 0.10619411617517471, 0.9500842094421387, -0.21647225320339203, -0.13088452816009521, 0.07472721487283707, -0.2981717586517334, 0.03060506097972393, 0.003934058826416731, -0.094333216547966, -0.19672131538391113, -0.43809735774993896, 0.3722193241119385, 0.9011973738670349, -0.5490344166755676, -0.9999233484268188, -0.3420809805393219, -0.308334618806839, -0.18798601627349854, -0.648052453994751, -0.2909453809261322, 0.10291148722171783, 0.32007819414138794, -0.15097272396087646, -0.3846896290779114, -1.224793791770935, -0.14498987793922424, -0.30291691422462463, 0.47588855028152466, 0.42010778188705444, 0.36637505888938904, 0.24137285351753235, 1.4650508165359497, -0.02912154234945774, -1.6786251068115234, -0.04566837102174759, -0.3198844790458679, -0.22743503749370575, 0.3678491711616516, 1.2501640319824219, -0.22597157955169678, -0.2539721727371216, -0.6089504957199097, -0.08690726011991501, -1.5255993604660034, 0.2866927981376648, -0.5258291363716125, 0.19830533862113953, -0.34180790185928345, -0.14065873622894287, 0.14693953096866608, -0.24317142367362976, 0.14906157553195953, 0.19901256263256073, 0.14216017723083496, -0.38855311274528503, 0.6006383299827576, -0.11755120009183884, -0.14728429913520813, 0.22887976467609406, 0.24107293784618378, -0.2787882089614868, -0.05549846589565277, -0.5351167321205139, 0.06675373762845993, -0.4685368835926056, 0.06331373006105423, -0.26994144916534424, 0.1858278214931488, -0.010058742016553879, 0.11593065410852432, -0.22409607470035553, -0.35576131939888, 0.6268706321716309, -0.22598177194595337, 0.5161171555519104, 0.05673213303089142, 0.2919459939002991, -0.24051058292388916, 0.08624914288520813, 0.4955492615699768, -0.2832864224910736, -0.10285986959934235, 0.05662868916988373, -0.18928954005241394, 0.008973871357738972, -2.198486804962158, 0.10611763596534729, -0.36471277475357056, -0.13378813862800598, -0.2130826711654663, -0.2416507750749588, 0.2216263711452484, -0.1715778410434723, 0.3043663203716278, -0.24101762473583221, -0.05217703804373741, -0.22771590948104858, -0.4970942437648773, 0.05027475208044052, -0.3362802267074585, -0.3410283625125885, 0.417707234621048, -0.3302697241306305, -0.1763201802968979, -0.030749863013625145, 0.2736908495426178, 0.3699232339859009, 0.0683915838599205, -0.5365844964981079, 0.14455929398536682, -1.9662108421325684, 0.2388983964920044, 0.18683171272277832, 0.27380144596099854, 0.24908027052879333, -0.4077165722846985, -0.10894045233726501, 0.01894441619515419, -0.12207819521427155, -0.6379768252372742, 0.1738465130329132, -0.06213176250457764, -0.5338440537452698, -0.4665718674659729, 0.02538433112204075, 0.16054753959178925, 0.9515712857246399, -0.01581989787518978, -0.4551977217197418, 0.06674443185329437, 0.3043113648891449, -0.22620262205600739, 0.10452822595834732, 0.07501643151044846, 0.156337171792984, -0.25442156195640564, 0.33349868655204773, 0.4733884930610657, -0.5058858394622803, -0.20740562677383423, -0.19412247836589813, 0.6837332248687744, -0.15180805325508118, -0.1047658622264862, 0.10924840718507767, -0.26353132724761963, 0.21143889427185059, 2.040477991104126, -1.0516239404678345, 0.06903664022684097, 0.3060043454170227, -0.5206801295280457, 0.09598937630653381, 0.06137929484248161, 2.2348196506500244, -0.5738400816917419, 0.07659696042537689, 0.0751076266169548, -0.005869018845260143, 0.07321573793888092, 0.407926470041275, 0.0824681967496872, -0.11927679181098938, 0.07141720503568649, -2.828155517578125, 0.08928285539150238, 0.11967147886753082, -0.2935759127140045, 0.3169029653072357, 0.17214898765087128, 0.3715265691280365, -0.11033282428979874, 0.003696015803143382, 0.35143372416496277, 0.17076724767684937}

#define LAYER_0_BS { -1.0261292457580566, -0.1137918084859848, -0.04846195876598358, 0.213057741522789, -0.691234827041626, 0.27180564403533936, 0.6085930466651917, -0.05855414271354675, 0.5817331075668335, 0.5153462886810303, -0.00602806406095624, -0.6963964700698853, 0.1259331852197647, -0.10049573332071304, 0.3055541515350342, 0.1572631597518921, -0.923557460308075, -0.08147534728050232, 0.17848622798919678, -0.037642695009708405, -0.15768711268901825, 1.5684077739715576, -0.24397720396518707, -0.25249722599983215, -0.004035016056150198, -0.15763673186302185, 0.245833158493042, 0.23245568573474884, 0.31057208776474, -0.35693204402923584, 0.14562243223190308, 1.2726620435714722}

#define LAYER_1_WT { 0.18486759066581726, 0.14599579572677612, 0.7404219508171082, 0.4720832109451294, 1.1574381589889526, -0.46748819947242737, 0.31576159596443176, -0.30539458990097046, -0.21212859451770782, -0.128334641456604, -0.006977320183068514, 0.04301745817065239, 0.1631195992231369, -0.0975419357419014, 0.0570378415286541, -0.11372533440589905, -0.2515762746334076, 0.20872360467910767, 0.01714949868619442, 0.0414014533162117, -0.147127166390419, -0.08628270775079727, -0.0953710675239563, -0.1497521996498108, -0.2896166145801544, 0.2605029344558716, -0.08267770707607269, -0.15579397976398468, -0.24945150315761566, -0.3327922821044922, -0.3300699293613434, 0.3201211988925934, 0.20299407839775085, 0.26124581694602966, 0.20119324326515198, -0.09655052423477173, -0.26084181666374207, -0.29914405941963196, 0.1418026238679886, 0.2809889316558838, -0.2987132966518402, 0.2610286772251129, -0.16311058402061462, -0.16472750902175903, -0.07888001203536987, -0.09748581051826477, 0.08380091190338135, -0.13376441597938538, 0.07367072254419327, 0.2820481061935425, -0.20389904081821442, 0.2974433898925781, 0.6393154859542847, 0.21084055304527283, 0.19196206331253052, -0.36299577355384827, 0.21296770870685577, -0.05872683599591255, -0.1875879317522049, 0.02888508327305317, -0.13121165335178375, -0.11038699746131897, 0.23074065148830414, 0.0958479642868042, 0.29633617401123047, 0.3177538514137268, 0.006628409028053284, -0.6766728162765503, -0.6035925149917603, 0.17850910127162933, -0.06211990863084793, 0.7455354332923889, 0.10815096646547318, -0.18531015515327454, -0.13755887746810913, -0.40262940526008606, -0.49147820472717285, 0.11505573987960815, -0.3947918117046356, -0.011577381752431393, -0.3483618199825287, 0.006912983488291502, 0.3132559061050415, -0.7189181447029114, -0.13144327700138092, 0.23429055511951447, 0.19079099595546722, -0.2051820307970047, -0.07877014577388763, -0.08642182499170303, -0.18334273993968964, -0.15828527510166168, 0.19559241831302643, 0.43116259574890137, -0.032437339425086975, 0.12850463390350342, -0.12185574322938919, -0.3636857271194458, -0.10157403349876404, 1.2316417694091797, 1.3881008625030518, -0.12301477789878845, 0.2587473392486572, -0.5075089335441589, 0.01761077716946602, 0.18370014429092407, 0.24131599068641663, 0.6079997420310974, -0.04306469485163689, -0.24054330587387085, -0.07549409568309784, 0.05890854820609093, -0.2798837125301361, 0.15267157554626465, -0.37582072615623474, 0.2770458459854126, -0.10173112154006958, 0.14648625254631042, 0.014064742252230644, -0.29954832792282104, -0.23687192797660828, 0.29657962918281555, 0.12088557332754135, -0.2704751491546631, -0.12153302133083344, -0.3076183795928955, 0.05191856995224953, -0.0744110569357872, -0.05295959487557411, -0.34067782759666443, 0.030144548043608665, 0.8245768547058105, 0.23204611241817474, 0.5462220907211304, 0.07477889955043793, -0.5472193360328674, 0.302367240190506, -0.2605031132698059, -0.26630643010139465, 0.01805000752210617, 0.509144127368927, 0.39760223031044006, 0.40046268701553345, 0.0039299544878304005, 0.05581387132406235, 0.047580935060977936, 0.10948289185762405, 0.4573894739151001, 0.8765462040901184, 0.14788362383842468, -0.00950380228459835, -0.13288231194019318, 0.08812741935253143, 0.29255494475364685, -0.14871260523796082, 0.031747106462717056, 0.3899327218532562, -0.04557987302541733, 0.3299867510795593, -0.27429112792015076, -0.31771886348724365, 0.015185696072876453, -0.22221103310585022, -0.11553726345300674, -0.14450426399707794, 0.30191320180892944, 0.1827922761440277, -0.174412801861763, -0.35217130184173584, 0.11350294947624207, 0.1076996922492981, 0.20432937145233154, 0.2269691526889801, 0.3183654844760895, 0.1462666243314743, -0.16889961063861847, -0.2380744367837906, 0.3666740655899048, 0.3109443485736847, -0.8645741939544678, -0.38887807726860046, 0.19627396762371063, -0.5915721654891968, 0.8987985253334045, 0.08844389021396637, -0.2695240378379822, 0.20100590586662292, -0.3689626157283783, -0.2772105038166046, -0.28451651334762573, -0.2785850763320923, -0.05638907477259636, -0.44050949811935425, -0.012041149660944939, -0.2240394502878189, 0.19864363968372345, 0.09452231228351593, 0.4154265224933624, 0.3463333249092102, -0.5986121296882629, -0.3168681561946869, 0.08565814793109894, -0.3092067241668701, 0.23907597362995148, 0.5422540903091431, 0.10671087354421616, 0.12153017520904541, 0.2751197814941406, 0.00035123294219374657, -0.02330135740339756, -0.16313882172107697, 0.060758646577596664, 0.09708953648805618, -0.07695221155881882, 0.043012361973524094, 0.03999721258878708, -0.28161779046058655, 0.2587105929851532, 0.034918125718832016, 0.15234622359275818, -0.19878768920898438, -0.19619214534759521, 0.17160606384277344, -0.06422141939401627, 0.36442050337791443, 0.2289186716079712, 0.6109535098075867, 0.36094701290130615, 1.86049222946167, -0.1726076453924179, 0.44873544573783875, -0.10041505098342896, -0.25798535346984863, 0.31040701270103455, -0.02062632143497467, 0.5750619769096375, 0.20397476851940155, 0.01558600552380085, 0.7300793528556824, 0.015797417610883713, 0.011104580946266651, -0.4094015955924988, 0.5429366230964661, 0.1264411062002182, 0.34999436140060425, -0.050733037292957306, -0.12063884735107422, 0.2496962994337082, -0.22373560070991516, -0.11777260154485703, 0.23477821052074432, 0.43778860569000244, -0.635320246219635, 0.009140207432210445, 0.2580164074897766, 0.09768269956111908, -0.3507750332355499, -0.16393877565860748, 0.5292121171951294, -0.3418717384338379, 0.8048751354217529, -0.419608473777771, 0.9442175030708313, 0.102147676050663, 0.13534121215343475, -0.16522972285747528, 0.04789188504219055, 0.6942134499549866, 0.3406587541103363, -0.1834605187177658, 0.16589562594890594, 0.10969351977109909, -0.22083847224712372, -0.25204187631607056, -0.32512417435646057, -0.008308745920658112, -0.34258314967155457, 0.3721802532672882, 0.2775508165359497, 0.2965322434902191, 0.22279807925224304, 0.031000332906842232, 0.021207986399531364, -0.2146092653274536, 0.29864782094955444, 0.270799458026886, 0.14804574847221375, 0.1707310974597931, 0.050206348299980164, -0.28928717970848083, 0.6269153356552124, 0.6661283373832703, 1.2376195192337036, -0.3117680847644806, 0.52397221326828, 0.24067914485931396, -0.3137594759464264, -0.18185201287269592, 0.1017412468791008, 0.006077916361391544, 0.3537987172603607, -0.20848441123962402, -0.16759362816810608, 0.04332331195473671, 0.29758650064468384, -0.17488166689872742, -0.16782088577747345, -0.03748778998851776, -0.10986537486314774, -0.10612418502569199, -0.2723427712917328, -0.31403660774230957, -0.2452920377254486, -0.25450369715690613, 0.2773432433605194, 0.12236055731773376, 0.3486841022968292, -0.2901894152164459, -0.08762526512145996, -0.02755657397210598, 0.27954351902008057, 0.3330700397491455, 0.17809772491455078, -0.1995951384305954, 0.030832568183541298, 0.27798378467559814, 0.1266687512397766, 0.15733256936073303, -0.0670841708779335, 0.3442308306694031, 0.2047574818134308, 0.3008042275905609, 0.30867302417755127, -0.21911965310573578, -0.24411921203136444, -0.2246931940317154, 0.1404283344745636, -0.321528822183609, -0.21879161894321442, -1.3336904048919678, -0.9487041234970093, 0.9769154191017151, -0.49941402673721313, 0.43990546464920044, 0.20086051523685455, -0.2679932713508606, 0.2312852293252945, -0.6512612104415894, -0.051810137927532196, 0.7457488179206848, -0.8724818229675293, -0.32704049348831177, -0.21202601492404938, -0.1737627536058426, 0.4123154878616333, -0.08928711712360382, 0.14688128232955933, 0.04117177054286003, 0.09902720898389816, 0.07920154184103012, 0.2928285002708435, -0.03612753003835678, -0.03160770237445831, 0.43428120017051697, 0.16741007566452026, -0.09409917145967484, 0.24484068155288696, -0.3211437463760376, 0.02696172706782818, 0.16445192694664001, 0.4862757921218872, -0.2032535970211029, 0.6330010890960693, -0.25932496786117554, 0.48606249690055847, 0.5417580604553223, -0.08567656576633453, 0.23086920380592346, -0.2830992043018341, 0.5240936875343323, 0.29689645767211914, 0.06528285145759583, 0.24884867668151855, 0.07150114327669144, 0.34810373187065125, -0.09441804885864258, -0.02466253563761711, -0.0658230260014534, 0.13897636532783508, 0.20041455328464508, -0.3228000998497009, 0.32870879769325256, -0.0014015436172485352, 0.3493986427783966, -0.06583288311958313, 0.2561495006084442, -0.20102620124816895, -0.08626337349414825, -0.32496941089630127, -0.004245781805366278, 0.2974538505077362, 0.20397859811782837, 0.31016185879707336, -0.09099496155977249, 0.43753644824028015, 0.535654604434967, -0.01632632501423359, 0.38210180401802063, -0.300637811422348, -0.27118510007858276, -0.15100470185279846, -0.14511288702487946, -0.23939567804336548, -0.026375379413366318, -0.2042897790670395, 0.19746659696102142, 0.36334937810897827, 0.16405896842479706, 0.24157850444316864, 0.44254985451698303, 0.081025131046772, -0.24855178594589233, -0.36535412073135376, 0.4823780059814453, -0.10226495563983917, 0.1303522288799286, -0.23143798112869263, 0.4167710542678833, -0.2447820007801056, 0.18063615262508392, -0.3436146676540375, 0.22295986115932465, 0.18167150020599365, 0.3193809390068054, -0.07895615696907043, -0.12756897509098053, 0.20290279388427734, 0.47530192136764526, 0.1507800668478012, 0.40539437532424927, -0.024736573919653893, 0.08481910079717636, 0.04388441890478134, -0.01981797069311142, 0.49852320551872253, -0.38535821437835693, 0.47570180892944336, -0.140085831284523, 0.3744165897369385, -0.30538734793663025, -0.08925941586494446, 0.4017263352870941, 1.0973539352416992, -0.15907174348831177, 0.24505241215229034, -0.4894750416278839, -0.03130868449807167, 0.17663051187992096, 0.2802235186100006, -0.2743834853172302, 0.43414628505706787, 0.045045796781778336, 0.2209651917219162, -0.24321027100086212, -0.09341321885585785, 0.038019340485334396, 0.33372607827186584, 0.2840690314769745, 0.6914918422698975, -0.16234707832336426, 0.3389909267425537, -0.06879668682813644, 0.07521054893732071, 0.28918346762657166, -0.18921521306037903, 0.32992732524871826, -0.13839185237884521, -0.044314827769994736, -0.2334224432706833, 0.19186879694461823, -0.11216787248849869, -0.02344898134469986, 0.36084797978401184, 0.24317574501037598, 0.6742557883262634, -0.07544061541557312, -0.46429717540740967, 0.48938149213790894, -0.24567247927188873, -0.06512371450662613, -0.11660024523735046, -0.034228499978780746, -0.5783036947250366, 0.013478800654411316, 0.07600878924131393, 0.05816870182752609, -0.24651630222797394, 0.21674077212810516, -0.15504321455955505, 1.4095642566680908, 1.3399128913879395, -0.48468518257141113, 0.46097531914711, 0.05671818181872368, 0.21106024086475372, -0.08396264910697937, -0.29341498017311096, 0.2738218605518341, -0.1712629348039627, -0.24173100292682648, 0.4716555178165436, 0.15904897451400757}

#define LAYER_1_BS {-0.0849936231970787, 0.03797519952058792, 0.09003984183073044, 0.5692340135574341, 0.29152294993400574, 0.6704286336898804, 0.3251405358314514, 0.20104555785655975, -0.16812317073345184, -0.16544412076473236, -0.15159809589385986, 0.28921636939048767, 0.19019460678100586, 0.3453828990459442, 0.11854188144207001, -0.2657225430011749}

#define LAYER_2_WT{ 0.44024819135665894, -0.3191778063774109, 0.289793461561203, 0.1147388443350792, 0.27255353331565857, 0.5076143741607666, -0.02514049783349037, -0.33611860871315, 0.6469700932502747, 0.3499731421470642, 0.5695760846138, -1.3409581184387207, -1.0782474279403687, -0.9098324775695801, 2.115781545639038, -0.6527957916259766, 0.8233476281166077, -1.7678894996643066, 2.5335299968719482, -1.8081291913986206, 0.24362550675868988, 0.6227193474769592, -1.142151117324829, 1.0456047058105469, 0.5711220502853394, -1.1965923309326172, 1.2062805891036987, -0.13133889436721802, 0.8446006774902344, 1.1828848123550415, -0.7267622351646423, -0.9137307405471802, 0.18392589688301086, 0.13241985440254211, 0.2343713790178299, -0.28927794098854065, -0.24881896376609802, 0.45004016160964966, -0.41749513149261475, -0.2439347505569458, 0.24040928483009338, 0.1705871969461441, -0.34837034344673157, 0.3788430094718933, -0.034707315266132355, 0.05403148755431175, 1.419466257095337, -0.5441128611564636, 0.5737787485122681, -1.0857781171798706, 0.41788825392723083, 0.7128841280937195, 0.18738441169261932, 0.7407017946243286, -0.5749499201774597, 0.654840886592865, -0.5193950533866882, -0.38425004482269287, 0.8353622555732727, -0.7561050653457642, -0.33212846517562866, 0.23992128670215607, -0.15726278722286224, -0.21031253039836884}

#define LAYER_2_BS { 0.04086320102214813, 0.2726464867591858, -0.5414790511131287, 0.22796817123889923}

#endif