#ifndef MODELPARAMS_WISDM_H
#define MODELPARAMS_WISDM_H

static float LAYER_0_WT[] = { 0.2589758336544037, -0.14693951606750488, 0.019208813086152077, -0.013138855807483196, -0.1519990861415863, -0.21664674580097198, -0.3779408931732178, -0.007229296490550041, -0.0732659250497818, 0.022718382999300957, 0.3478047847747803, 0.12871505320072174, 0.03135335072875023, 0.14585137367248535, 0.040401920676231384, 0.3935251832008362, 0.21369151771068573, 0.1610780507326126, 0.18165786564350128, 0.36144593358039856, 0.12837862968444824, -0.2671792805194855, -0.10687022656202316, 0.04407539218664169, 0.32706549763679504, 0.3213033974170685, 0.2801772654056549, -0.255635142326355, -0.11502272635698318, 0.2515893280506134, -0.2470463663339615, -0.2367311269044876, 0.352096825838089, -0.07166163623332977, -0.20416222512722015, -0.03683153912425041, 0.24128006398677826, -0.29521116614341736, -0.15183383226394653, 0.11192427575588226, -0.1142331063747406, -0.4784218668937683, -0.19848358631134033, 0.47040605545043945, 0.059109900146722794, -0.0716455727815628, 0.059341538697481155, -0.33944305777549744, -0.1375703066587448, 0.06442149728536606, -0.08807705342769623, -0.28224945068359375, 0.22583752870559692, -0.16196832060813904, 0.26083433628082275, -0.005825504660606384, 0.42996397614479065, 0.16923636198043823, 0.026533709838986397, 0.07025163620710373, -0.3026103377342224, -0.22073203325271606, -0.17285382747650146, 0.2532145082950592, 0.302944153547287, 0.11232969164848328, -0.08326056599617004, -0.22263406217098236, -0.2255810648202896, 0.024957608431577682, -0.39081430435180664, -0.09792547672986984, -0.345136821269989, -0.086533322930336, -0.3107820451259613, 0.1287444829940796, -0.14905400574207306, -0.017229996621608734, -0.22601015865802765, 0.41009601950645447, -0.11980205774307251, 0.5374500155448914, -0.25286969542503357, -0.3956179916858673, 0.24439457058906555, 0.4085937738418579, 0.3810745179653168, 0.4187234938144684, 0.34840837121009827, 0.07273896783590317, -0.18788404762744904, -0.03863142803311348, -0.09152791649103165, -0.20105275511741638, 0.03165192902088165, -0.5846652984619141, -0.18083816766738892, -0.19258135557174683, 0.21472230553627014, 0.07571502029895782, 0.1571279913187027, 0.26113179326057434, 0.10464238375425339, -0.17157864570617676, 0.011518637649714947, -0.1637386828660965, 0.2625531256198883, 0.0915522426366806, -0.31688517332077026, -0.20542776584625244, 0.43852847814559937, -0.019342288374900818, -0.04104277491569519, -0.398395299911499, -0.027887294068932533, 0.34191831946372986, 0.38755083084106445, -0.3476887047290802, -0.1558268517255783, -0.3572531044483185 };
static float LAYER_1_WT[] = { 0.110536128282547, 0.028499070554971695, -0.2536986768245697, 0.07368892431259155, -0.03793705999851227, 0.06906113028526306, 0.26859620213508606, 0.11279279738664627, 0.004534287843853235, 0.21157599985599518, 0.11191998422145844, 0.0931328609585762, 0.2614939510822296, 0.19056668877601624, 0.19667570292949677, 0.1378287672996521, 0.2289787232875824, 0.00013241243141237646, 0.18148298561573029, 0.265789270401001, -0.1764337122440338, -0.2503434121608734, -0.07364991307258606, 0.024327481165528297, 0.1580473929643631, 0.2179749757051468, -0.18678012490272522, -0.29349952936172485, -0.23150572180747986, 0.06130573898553848, -0.014141883701086044, 0.11158324778079987, -0.2840372920036316, 0.2136560082435608, -0.08475840091705322, 0.14242605865001678, 0.29423201084136963, -0.28770899772644043, -0.06029633432626724, -0.05020470544695854, 0.27467888593673706, 0.15081141889095306, 0.22389860451221466, 0.10084747523069382, -0.2923758029937744, 0.1430794596672058, -0.18830366432666779, 0.29381608963012695, 0.1168697401881218, 0.0427694171667099, -0.2601127326488495, 0.10611362755298615, -0.3355536162853241, -0.20614436268806458, 0.12075173854827881, 0.2209739238023758, 0.22730033099651337, -0.22378817200660706, -0.2683907151222229, -0.056753698736429214, 0.11103728413581848, -0.07147586345672607, 0.029948733747005463, 0.22868920862674713, -0.06762345135211945, -0.07954170554876328, 0.131299689412117, -0.1450340896844864, -0.026605654507875443, 0.049100957810878754, 0.1637461632490158, 0.2502366900444031, -0.04672861099243164, 0.13235212862491608, 0.10592526942491531, 0.2786417007446289, 0.18504230678081512, 0.05767921358346939, -0.21397437155246735, -0.16293324530124664, -0.25476062297821045, 0.26127269864082336, 0.23162762820720673, -0.19877561926841736, -0.2533073127269745, -0.2083110362291336, -0.015732362866401672, -0.2252461165189743, 0.1968274563550949, -0.1869746595621109, 0.25317278504371643, -0.08005111664533615, -0.17633792757987976, 0.05790884792804718, 0.026807140558958054, -0.24277083575725555, -0.12376938760280609, 0.042473942041397095, 0.26757511496543884, -0.21366360783576965, -0.3066083788871765, 0.0750243067741394, 0.25249427556991577, -0.11115472763776779, -0.02170179970562458, -0.31106725335121155, -0.05544630065560341, 0.0268295519053936, 0.04642582684755325, -0.27028822898864746, 0.1026339903473854, 0.1434413641691208, 0.27340787649154663, 0.3062993288040161, 0.2183525562286377, 0.04525807872414589, 0.22839640080928802, 0.13018707931041718, 0.1503935009241104, -0.12628841400146484, 0.047810159623622894, 0.2681529223918915, -0.19534379243850708, -0.22055001556873322, -0.011298032477498055, 0.019525039941072464, 0.20022203028202057, 0.2065451443195343, -0.01120090950280428, 0.27528607845306396, -0.0924886167049408, 0.09550361335277557, 0.20960599184036255, -0.09298685938119888, 0.09684280306100845, 0.00898702535778284, -0.2457456886768341, 0.24559195339679718, -0.0563264861702919, 0.2477070689201355, 0.21390463411808014, -0.2369523048400879, 0.19431768357753754, 0.09729999303817749, -0.0635448768734932, 0.15527454018592834, -0.09621665626764297, -0.23494818806648254, -0.12458966672420502, -0.13605700433254242, 0.07878396660089493, -0.268539696931839, -0.1131884828209877, -0.013703102245926857, -0.17076468467712402, 0.18900789320468903, 0.08591117709875107, -0.08351621776819229, 0.04872763901948929, 0.03723481670022011, -0.10089702904224396, 0.21714334189891815, -0.3060047924518585, 0.2973724901676178, 0.12763851881027222, -0.27792513370513916, -0.1569383144378662, -0.08974608033895493, 0.09203097224235535, -0.1178857609629631, -0.15096521377563477, 0.08034385740756989, 0.1954023241996765, -0.18053452670574188, 0.022294480353593826, -0.14931340515613556, 0.22705121338367462, -0.098358154296875, -0.16304264962673187, -0.0027267332188785076, -0.2166573405265808, 0.13932596147060394, 0.200264111161232, -0.16878913342952728, 0.21664947271347046, -0.2450311928987503, 0.27366921305656433, -0.018970981240272522, -0.09462498128414154, -0.2531631588935852, -0.09292435646057129, -0.1689317226409912, 0.23051635921001434, -0.12968242168426514, -0.11746972054243088, 0.16889464855194092, -0.21042285859584808, 0.1159520223736763, -0.22719919681549072, -0.2555024027824402, 0.14161895215511322, 0.1525183767080307, -0.19390112161636353, 0.26338669657707214, -0.2851395308971405, -0.12370851635932922, 0.18673408031463623, -0.07849420607089996, 0.028529437258839607, -0.2831133306026459, -0.08368189632892609, 0.08516054600477219, -0.3210733234882355, -0.2598538100719452, -0.07924497872591019, 0.06606704741716385, 0.1947670578956604, 0.08363009989261627, -0.01065813284367323, -0.050125885754823685, -0.21131481230258942, 0.11626578867435455, 0.18348300457000732, -0.157680481672287, -0.24985115230083466, 0.08071984350681305, -0.09965280443429947, 0.08266349136829376, -0.06657393276691437, 0.0002934960648417473, -0.3096582591533661, -0.2221243679523468, -0.1939878910779953, 0.20550216734409332, 0.08023012429475784, 0.13065074384212494, 0.19490908086299896, 0.08834575116634369, 0.21448153257369995, 0.029014024883508682, -0.30377882719039917, -0.11364983022212982, 0.09738018363714218, -0.10942105203866959, -0.16806460916996002, 0.005350840277969837, 0.1642172485589981, 0.0636381134390831, -0.22474409639835358, 0.1834719479084015, 0.13934358954429626, -0.023174570873379707, -0.1694943755865097, 0.2729562520980835, 0.20023192465305328, -0.12010989338159561, -0.0397566556930542, 0.021932996809482574, 0.1554882973432541, 0.22181881964206696, 0.02246450074017048, 0.14220979809761047, -0.02153737097978592, -0.02168438397347927, 0.284341037273407, 0.07520436495542526, -0.2699991464614868, -0.1398661583662033, -0.16927015781402588, -0.08032791316509247, 0.18682649731636047, 0.10213447362184525, -0.03534526750445366, 0.14401990175247192, -0.0797121450304985, 0.05342024192214012, -0.041509076952934265, 0.013569129630923271, -0.055960651487112045, -0.19965200126171112, -0.16835910081863403, 0.21504934132099152, 0.27657026052474976, -0.22213180363178253, -0.1498696655035019, -0.24137215316295624, -0.0657186508178711, -0.29522624611854553, -0.04561365768313408, -0.005909480154514313, -0.03798409178853035, -0.05633606016635895, 0.17754386365413666, 0.0018744542030617595, -0.2761317491531372, 0.12781062722206116, -0.14579568803310394, -0.17143084108829498, 0.25744205713272095, 0.187137633562088, 0.006107544992119074, 0.11646363139152527, -0.14903879165649414, -0.1637488156557083, -0.1361021250486374, 0.19234305620193481, -0.008732125163078308, -0.23256593942642212, 0.21807916462421417, -0.07200416177511215, 0.0742059201002121, 0.21483102440834045, 0.19283996522426605, -0.20294208824634552, -0.15565669536590576, -0.13350626826286316, 0.23595792055130005, -0.2093566507101059, -0.10610496252775192, -0.13519257307052612, -0.023633994162082672, -0.1227157935500145, 0.05343352630734444, 0.0706077590584755, -0.17962773144245148, 0.09509459137916565, 0.14461949467658997, -0.012782949954271317, 0.02982402592897415, -0.25351640582084656, 0.13375228643417358, -0.10706205666065216, -0.24061444401741028, -0.23932284116744995, 0.22277958691120148, 0.2497740238904953, -0.20214895904064178, 0.25980401039123535, -0.22342383861541748, 0.13420981168746948, 0.030203359201550484, 0.28256312012672424, -0.00301046809181571, -0.21298202872276306, 0.19585345685482025, -0.20734263956546783, 0.27238211035728455, -0.004255413543432951, 0.14484484493732452, 0.04263443872332573, 0.23937708139419556, -0.21009106934070587, -0.15252302587032318, -0.05990469828248024, -0.22147667407989502, 0.0684436783194542, -0.10186293721199036, 0.13722330331802368, -0.002243261318653822, -0.20592674612998962, -0.2877817451953888, 0.006043479312211275, -0.10497339069843292, 0.2147645801305771, 0.13210052251815796, 0.0959639623761177, -0.09116634726524353, -0.1488068550825119, -0.20251306891441345, -0.2552432119846344, -0.22476890683174133, 0.18499667942523956, -0.19078029692173004, 0.03283240646123886, 0.09018098562955856, 0.15936581790447235, 0.2423250675201416, -0.1554562747478485, 0.16690099239349365, -0.26743951439857483, 0.18527774512767792, 0.03495176136493683, 0.13508175313472748, -0.021530747413635254, -0.12454795837402344, -0.24261170625686646, 0.2866534888744354, 0.09020820260047913, 0.22783170640468597, 0.048178307712078094, 0.11800012737512589, -0.19655588269233704, -0.23003078997135162, 0.24733056128025055, -0.12511080503463745, 0.17433950304985046, -0.1438053548336029, 0.20203888416290283, 0.291936993598938, -0.07193784415721893, -0.00564266974106431, 0.26172107458114624, 0.11063677072525024, 0.27372831106185913, 0.1656988561153412, -0.2511651813983917, -0.20389065146446228, -0.2715778946876526, 0.09226025640964508, -0.13372139632701874, -0.23884527385234833, -0.08496074378490448, 0.0946284830570221, 0.19191116094589233, -0.04559710994362831, 0.2896331250667572, 0.20603804290294647, 0.14605890214443207, 0.20080025494098663, -0.18221236765384674, 0.1906690150499344, 0.018994279205799103, -0.12447930872440338, -0.10075658559799194, -0.06223120167851448, -0.08977150917053223, 0.11408665776252747, 0.08732669055461884, -0.2550312280654907, 0.12809216976165771, 0.019993921741843224, 0.043252311646938324, -0.21530817449092865, -0.11986761540174484, 0.263631135225296, -0.08665301650762558, 0.009401503019034863, -0.11730515956878662, -0.17805376648902893, -0.06612160056829453, 0.21959665417671204, -0.016608163714408875, -0.06219002231955528, 0.11004927009344101, -0.13575564324855804, -0.2788662612438202, -0.1689997762441635, 0.2535143494606018, 0.005655462387949228, -0.015321034938097, -0.010539953596889973, 0.13478006422519684, -0.20036455988883972, -0.10056629031896591, -0.21481996774673462, 0.035623230040073395, -0.20597563683986664, -0.1268662065267563, 0.0226424727588892, -0.2104102224111557, -0.028998689725995064, -0.060163527727127075, -0.08473418653011322, -0.009878729470074177, 0.18346866965293884, 0.12133241444826126, -0.1266842633485794, -0.08492527157068253, -0.09215234965085983, 0.2907496988773346, 0.14824886620044708, 0.022888775914907455, -0.003098813584074378, 0.05293997749686241, 0.28415849804878235, -0.20651564002037048, 0.1353217512369156, -0.1462336629629135, 0.16045938432216644, 0.00982520543038845, 0.28160545229911804, -0.1337723731994629, -0.21418294310569763, -0.24676130712032318, -0.23802393674850464, 0.06505732983350754, 0.03460629656910896, 0.12116754055023193, -0.3169478178024292, -0.1101541742682457, 0.04812048748135567, -0.2041860967874527, 0.10927754640579224, -0.13685919344425201, 0.2525651156902313, 0.12766169011592865, 0.2645498216152191, 0.2771242558956146, 0.08266482502222061, 0.16709549725055695, 0.15198655426502228, -0.0024048106279224157, -0.1799868941307068, -0.19720755517482758, 0.09961171448230743, -0.21320921182632446, -0.06614407896995544, -0.1698826551437378, -0.23096975684165955, -0.08997482806444168, 0.07424505054950714, -0.05059918016195297, 0.31226208806037903, -0.07324738055467606, -0.1654113531112671, -0.21504487097263336, 0.07865776121616364, -0.23793521523475647, 0.015831099823117256, 0.18184268474578857, -0.14831729233264923, -0.17677724361419678, -0.28482434153556824, -0.14578236639499664, 0.15959954261779785, -0.23645877838134766, 0.12379596382379532, -0.2700212001800537, 0.20056279003620148, 0.009763435460627079, 0.2165827453136444, -0.1964234560728073, 0.2802585959434509, 0.3071855902671814, 0.09979775547981262, 0.24762842059135437, 0.09561636298894882, 0.2474268674850464, -0.1885797530412674, 0.042874787002801895, 0.23661409318447113, 0.18065594136714935, -0.12336479127407074, 0.057998642325401306, 0.1728259176015854, 0.24726741015911102, 0.19319970905780792, -0.20827719569206238, 0.13194552063941956, -0.060455210506916046, -0.12233467400074005, -0.016414616256952286, 0.18175765872001648, -0.09757830947637558, -0.27384886145591736, -0.24908530712127686, 0.06745139509439468, 0.19962508976459503, 0.021407032385468483, -0.25983890891075134, 0.13124968111515045, -0.1647561639547348, -0.07176291942596436, -0.13515837490558624, 0.20378343760967255, -0.1975892335176468, 0.04669841378927231, -0.1038118228316307, -0.13315436244010925, 0.1375703066587448, -0.20438291132450104, -0.221213698387146, 0.056148793548345566, 0.07538670301437378, -0.23414461314678192, 0.05101471394300461, -0.20558561384677887, -0.23470817506313324, -0.27562645077705383, -0.008086493238806725, 0.16818605363368988, -0.02309672348201275, 0.04777307063341141, -0.048623133450746536, 0.12383782118558884, 0.17217130959033966, -0.017328035086393356, -0.12841644883155823, 0.18456126749515533, 0.24735870957374573, -0.1700972467660904, 0.11726734042167664, -0.1932736337184906, 0.21354345977306366, -0.06589608639478683, -0.20075635612010956, 0.0407867468893528, -0.00885523296892643, 0.14742770791053772, 0.23757734894752502, 0.0052986592054367065, 0.12492432445287704, 0.14458061754703522, -0.008346488699316978, 0.052277836948633194, 0.25008827447891235, -0.1782340407371521, 0.2482084333896637, 0.1127568781375885, 0.15517210960388184, -0.19374419748783112, 0.08484303206205368, 0.05738062411546707, -0.005177780520170927, 0.27452901005744934, -0.013046879321336746, -0.23132531344890594, -0.1619729995727539, 0.21156802773475647, 0.2215876281261444, -0.007590860594063997, -0.054720643907785416, -0.04568883776664734, -0.29561397433280945, 0.2719672620296478, -0.20882268249988556, 0.03218041732907295, -0.2778940796852112, -0.20819859206676483, 0.02600041776895523, -0.06708872318267822, -0.015708666294813156, 0.0879335030913353, -0.197805717587471, 0.11441607028245926, -0.28747838735580444, -0.23860660195350647, 0.24322810769081116, 0.050906289368867874, -0.12452533841133118, -0.14925724267959595, 0.006288668140769005, -0.1318548619747162, -0.24247005581855774, -0.09844067692756653, -0.02867695689201355, -0.24160708487033844, 0.21967078745365143, 0.08946147561073303, -0.255650132894516, 0.20270627737045288, -0.034855056554079056, 0.17060725390911102, 0.28893086314201355, 0.031080497428774834, -0.026452412828803062, -0.17005832493305206, -0.22848673164844513, -0.27971917390823364, 0.1069539338350296, -0.254506915807724, -0.17157131433486938, 0.06135775148868561, -0.08101591467857361, -0.08251181989908218, -0.044957228004932404, 0.19448009133338928, 0.25020909309387207, -0.1111631914973259, -0.19071230292320251, -0.1467716544866562, 0.05237763747572899, -0.22718912363052368, 0.2946203052997589, -0.12269120663404465, -0.05451319366693497, -0.11460330337285995, -0.2587074637413025, -0.16395188868045807, -0.019136721268296242, 0.191279798746109, 0.22558248043060303, -0.1589244157075882, -0.023280290886759758, -0.21254360675811768, 0.2080754190683365, -0.08831028640270233, 0.061588943004608154, 0.15648780763149261, 0.17844818532466888, -0.13658127188682556, -0.12656047940254211, 0.22234393656253815, -0.015023834072053432, 0.2904292941093445, 0.1403450071811676, 0.14211547374725342, 0.2620553970336914, -0.193787083029747, 0.2287733405828476, 0.03674484044313431, -0.09660448133945465, -0.22755679488182068, -0.0129184415563941, -0.26618504524230957, 0.229143887758255, 0.06151040270924568, -0.04213360324501991, 0.2973214089870453, -0.04846705123782158, 0.004976458847522736, -0.10436343401670456, 0.05656588450074196, -0.051957402378320694, 0.083541639149189, -0.030528880655765533, -0.24411733448505402, -0.02747616358101368, 0.23743043839931488, -0.15733519196510315, 0.08711382001638412, 0.0919208750128746, 0.08330914378166199, 0.06735390424728394, -0.19413818418979645, -0.2540751099586487, -0.018903348594903946, -0.020421380177140236, -0.03420587256550789, -0.05539856106042862, -0.06068430840969086, -0.26563432812690735, 0.0817430168390274, -0.04769629240036011, 0.11414971202611923, -0.14365315437316895, -0.00685882568359375, -0.27577441930770874, -0.08079409599304199, 0.10651849955320358, 0.03463578224182129, -0.2285860925912857, 0.2731585204601288, -0.1137656420469284, -0.30403631925582886, 0.15723292529582977, 0.09767303615808487, -0.06293175369501114, -0.1798502653837204, -0.03976954519748688, -0.09194673597812653, -0.007459877524524927, 0.2035806030035019, -0.12042167782783508, -0.15233731269836426, 0.2660296857357025, 0.2914257347583771, 0.15488676726818085, -0.311470627784729, 0.20832788944244385, -0.041925277560949326, 0.26849430799484253, 0.052657656371593475, -0.06009557843208313, -0.20406094193458557, -0.016140174120664597, -0.19563421607017517, -0.15482169389724731, -0.17096108198165894, -0.1954648792743683, 0.03838293254375458, -0.2853725850582123, 0.10797953605651855, 0.25715547800064087, 0.13205654919147491, -0.2569182217121124, -0.05978267639875412, -0.15238945186138153, -0.22339215874671936, -0.036261819303035736, 0.06443324685096741, -0.11789116263389587, -0.08436038345098495, 0.10132262110710144, -0.23166710138320923, 0.2971365749835968, 0.16909092664718628, 0.12137553095817566, 0.2968287467956543, -0.19516468048095703, -0.025211278349161148, -0.23932167887687683, 0.08794646710157394, -0.13413913547992706, 0.21602267026901245, 0.2331855595111847, 0.07965970039367676, 0.17292848229408264, 0.2035049945116043, 0.1492873877286911, 0.01687430404126644, -0.1353025585412979, 0.2640066146850586, -0.30553916096687317, -0.017275827005505562, 0.06760098040103912, 0.019032295793294907, 0.02316802367568016, -0.15054935216903687, -0.19864998757839203, -0.15592409670352936, -0.08506244421005249, -0.2648339867591858, 0.1411525160074234, 0.14035570621490479, 0.23001475632190704, 0.007837423123419285, 0.022859247401356697, -0.11409878730773926, -0.15972624719142914, 0.19013333320617676, 0.27542513608932495, -0.04350985959172249, -0.14156024158000946, 0.19334204494953156, 0.05927884951233864, 0.1521867960691452, -0.10728636384010315, 0.1442132592201233, -0.14691074192523956, 0.0695679783821106, -0.1500348299741745, 0.22880394756793976, -0.11486229300498962, 0.008622624911367893, 0.23015719652175903, -0.0167363490909338, -0.08965063840150833, -0.07723968476057053, -0.1273883432149887, -0.19933167099952698, 0.25088590383529663, -0.017879236489534378, 0.06678467243909836, -0.25891318917274475, 0.07151808589696884, -0.09493031352758408, 0.1736811250448227, 0.2218547761440277, 0.24100691080093384, -0.2842586040496826, 0.2119148224592209, 0.11009587347507477, -0.289533406496048, -0.2745479345321655, -0.16225111484527588, 0.08138253539800644, 0.2141401767730713, -0.007618806790560484, -0.21213272213935852, -0.1196427196264267, 0.24050843715667725, -0.12359842658042908, -0.2512674629688263, 0.06967869400978088, -0.1461786925792694, -0.07308821380138397, 0.31999900937080383, 0.19642390310764313, -0.22952759265899658, 0.017274677753448486, 0.125833660364151, 0.08809152245521545, -0.18720810115337372, -0.12995809316635132, -0.09612517803907394, -0.27819955348968506, 0.26446616649627686, -0.28220757842063904, 0.018141169100999832, 0.10531101375818253, 0.11312101781368256, -0.1283329278230667, 0.10842839628458023, -0.009850232861936092, 0.14611083269119263, -0.08746624737977982, -0.2684408724308014, -0.12843339145183563, -0.23911315202713013, 0.20156678557395935, 0.18089140951633453, -0.185262531042099, 0.27141499519348145, -0.0011693156557157636, 0.1184585839509964, 0.1737314760684967, -0.2750762701034546, -0.18452635407447815, 0.08605185896158218, -0.2744443416595459, -0.24864758551120758, 0.161508709192276, -0.09488654136657715, -0.2687012851238251, 0.2427838295698166, -0.09526233375072479, 0.02321045845746994, -0.0004178661620244384, -0.20979222655296326, -0.09160283952951431, -0.07175076752901077, 0.08764238655567169, -0.23436634242534637, 0.04879729449748993, 0.287436842918396, -0.019775597378611565, 0.10538578033447266, 0.27669116854667664, -0.10099069774150848, 0.16012342274188995, -0.09766170382499695, 0.14261585474014282, 0.1315532773733139, 0.2653203010559082, 0.10418086498975754, 0.28249913454055786, 0.22559770941734314, 0.1336814910173416, 0.05506231263279915, -0.08555198460817337, -0.13181187212467194, -0.27806389331817627, -0.11978498846292496, 0.26469624042510986, -0.053719740360975266, 0.09128409624099731, -0.032881807535886765, 0.2213246077299118, 0.18757154047489166, -0.05080077052116394, -0.14088857173919678, 0.0598110631108284, -0.0502089187502861, 0.21082361042499542, 0.20212997496128082, 0.12057536095380783, 0.0773993730545044, 0.17852868139743805, -0.22080235183238983, -0.26230207085609436, 0.27614113688468933, 0.2072487324476242, 0.06788436323404312, 0.20397211611270905, -0.075055792927742, -0.10966053605079651, 0.02808186039328575, -0.05895446240901947, -0.26693037152290344, -0.3062688708305359, -0.1187683716416359, -0.29134872555732727, 0.1996292620897293, -0.06604944169521332, -0.07819869369268417, 0.0688834935426712, 0.1638655811548233, -0.1843205839395523, 0.12206696718931198, -0.08320952951908112, 0.09780412167310715, 0.05565274879336357, 0.22862114012241364, 0.13964249193668365, 0.09438961744308472, 0.10566122084856033, -0.30856576561927795, -0.09786592423915863, -0.0003974787541665137, 0.08434894680976868, -0.364475816488266, 0.1584833711385727, 0.2256135493516922, -0.011503428220748901, -0.1593516618013382, -0.1750008910894394, -0.14005132019519806, -0.11084850132465363, 0.0761963501572609, -0.19267679750919342, -0.0039880345575511456, 0.2188727855682373, -0.16312403976917267, 0.13823926448822021, 0.08260893821716309, -0.15033578872680664, 0.04255632311105728, 0.13336560130119324, -0.1296771913766861, -0.1452348232269287, -0.23075947165489197, 0.09079297631978989, 0.09731937199831009, -0.11490988731384277, -0.10536525398492813, 0.16380071640014648, -0.2577262818813324, -0.27763837575912476, -0.21907439827919006, -0.020708458498120308, 0.17953407764434814, 0.24930094182491302, -0.22913144528865814, 0.1097249686717987, -0.15598748624324799, -0.0036450966726988554, 0.17449738085269928, 0.16014377772808075, 0.1596808284521103, 0.1886216104030609, 0.2799864709377289, 0.20799323916435242, -0.09060171991586685, -0.0008232527179643512, 0.19146765768527985, 0.261804461479187, 0.21545299887657166, -0.22679156064987183, 0.21295173466205597, 0.21028581261634827, 0.1380872130393982, -0.20497503876686096, 0.18192678689956665, 0.17301002144813538, -0.14204679429531097, -0.24787981808185577, -0.09196348488330841, -0.13422143459320068, 0.18449559807777405, -0.16215497255325317, 0.05513511225581169, -0.1280927062034607, -0.23166140913963318, 0.2074824422597885, 0.12581263482570648, 0.19808770716190338, 0.1532314568758011, 0.1848888099193573, 0.056172147393226624, 0.057191185653209686, -0.04311729595065117, 0.20127280056476593, -0.22091616690158844, -0.2827158272266388, -0.09592239558696747, 0.17138034105300903, 0.19652540981769562, -0.10006638616323471, -0.03424721211194992, 0.14552806317806244, 0.25472909212112427, -0.21197955310344696, 0.17033182084560394, 0.09642219543457031, -0.17502377927303314, -0.16266001760959625, 0.25877252221107483, 0.020851613953709602, -0.016102854162454605, 0.1903238147497177, 0.21354402601718903, 0.09199345111846924, 0.19487334787845612, -0.18230675160884857, 0.2338792085647583, 0.20667001605033875, 0.2178826928138733, -0.21330632269382477, -0.2821645736694336, 0.19476094841957092, -0.23391598463058472, 0.20831817388534546, 0.10902547091245651, 0.12985703349113464, 0.08255133777856827, -0.11809033900499344, 0.24518075585365295, 0.12898807227611542, 0.2101021707057953, -0.198419988155365, -0.21635708212852478, -0.25549086928367615, 0.16255013644695282, -0.03593955561518669, -0.18826353549957275, 0.2360677421092987, 0.2640276253223419, 0.09610673040151596, -0.05593348667025566, -0.17775042355060577, -0.11644946038722992, 0.13871973752975464, 0.24017022550106049, 0.16185362637043, -0.07963283360004425, -0.09585897624492645, 0.21425312757492065, 0.2081633061170578, -0.19189786911010742, 0.20468246936798096, 0.2576109766960144, 0.10332880169153214, -0.11999581009149551, -0.15799297392368317, -0.08903246372938156, 0.17924687266349792, -0.23050262033939362, 0.010985293425619602, -0.10364064574241638, 0.11629972606897354, 0.20879139006137848, -0.06899958848953247, 0.004689542111009359, 0.28181275725364685, 0.08168226480484009, -0.2697007656097412, 0.17593413591384888, -0.14074574410915375, -0.1048295646905899, 0.13199031352996826, -0.07369829714298248, 0.0977357029914856, 0.03821282088756561, -0.10860219597816467, 0.056228525936603546, 0.23970846831798553, -0.08781174570322037, 0.01983186975121498, -0.20368976891040802, -0.2936476469039917, -0.2822316884994507, -0.048114046454429626, -0.15895670652389526, -0.053913965821266174, 0.17168010771274567, -0.2651512920856476, -0.1492607593536377, -0.04436546936631203, 0.13270027935504913, 0.020134001970291138, -0.002582105342298746, -0.2123105674982071, -0.22101150453090668, -0.15068645775318146, -0.1199895367026329, 0.2215963453054428, 0.16343167424201965, 0.053013674914836884, 0.12717770040035248, -0.21500714123249054, 0.26773709058761597, -0.11260747164487839, 0.15148283541202545, -0.01674959622323513, 0.19984795153141022, -0.06389447301626205, 0.2329133003950119, 0.23944994807243347, -0.17516961693763733, -0.13083413243293762, 0.06587563455104828, -0.21633101999759674, 0.15352532267570496, 0.2798084318637848, 0.289114385843277, 0.032298918813467026, -0.25245970487594604, -0.12573422491550446, -0.23299719393253326, 0.031053340062499046, 0.19547702372074127, -0.20255017280578613, -0.08656550943851471, -0.2262171059846878, -0.17796970903873444, -0.20847731828689575, -0.216725692152977, -0.2082493156194687, 0.09174706041812897, 0.26699838042259216, 0.047304511070251465, -0.1891600489616394, -0.023212069645524025, -0.18606653809547424, -0.01520608738064766, 0.03840993344783783, 0.11844921112060547, 0.06468556076288223, 0.0024407797027379274, -0.10773739218711853, 0.2425116002559662, 0.06795673072338104, 0.04982585832476616, -0.24722635746002197, -0.19710516929626465, -0.06634503602981567, 0.054657917469739914, -0.20256492495536804, 0.06291886419057846, -0.06872104853391647, -0.286957710981369, 0.17087134718894958, 0.06436742842197418, 0.07033543288707733, -0.2474287897348404, 0.15087585151195526, -0.23688256740570068, -0.10744838416576385, 0.12496346980333328, 0.00474998215213418, -0.03481398895382881, 0.1390283852815628, -0.17166092991828918, 0.048968058079481125, -0.1505776345729828, 0.10500242561101913, 0.025288835167884827, -0.08848409354686737, -0.28184759616851807, 0.28458312153816223, 0.24705354869365692, 0.0959789901971817, -0.027276139706373215, -0.1464453637599945, -0.11610423028469086, -0.08646562695503235, 0.21242429316043854, 0.20368386805057526, 0.18501880764961243, -0.07234742492437363, 0.05113846808671951, 0.18908900022506714, -0.1875659078359604, -0.14339900016784668, 0.11020132154226303, -0.15460443496704102, -0.22953657805919647, 0.1806601881980896, -0.3067147731781006, -0.209758922457695, -0.23346345126628876, -0.1587715446949005, 0.1601881980895996, 0.26641708612442017, 0.3141689896583557, -0.20090864598751068, -0.1494859904050827, 0.17989470064640045, 0.16299425065517426, -0.2593100368976593, -0.10487861931324005, -0.27098625898361206, -0.09761769324541092, 0.11254734545946121, -0.17579995095729828, 0.2340470552444458, -0.1089993491768837, -0.17644651234149933, 0.1625186800956726, 0.06628381460905075, 0.24308796226978302, 0.08363614976406097, 0.19000649452209473, 0.17455217242240906, -0.09507263451814651, -0.3025432527065277, -0.2977306544780731, 0.29707783460617065, 0.03263365477323532 };
static float LAYER_2_WT[] = { 0.3833998143672943, -0.23698510229587555, 0.23613198101520538, -0.55271315574646, -0.418477326631546, 0.22402910888195038, 0.4213647246360779, 0.34771260619163513, -0.43480199575424194, -0.3975001275539398, -0.015188315883278847, -0.2095405012369156, 0.17438365519046783, -0.21144862473011017, 0.07187734544277191, -0.28928470611572266, 0.22089767456054688, 0.43431738018989563, 0.4934871196746826, 0.15094365179538727, 0.4281846582889557, 0.43749764561653137, -0.4656747579574585, -0.1370704621076584, 0.12218131870031357, 0.050866514444351196, -0.0443803146481514, -0.2846628725528717, -0.07794436812400818, -0.06721986085176468, 0.12017907202243805, 0.28096210956573486 };

static float LAYER_0_BS[] = { 0.001636255532503128, 0.024866828694939613, 0.016427813097834587, -0.01416687574237585, -0.004019205458462238, -0.002941401908174157, 0.01201551966369152, -0.01021286565810442, 0.0034560728818178177, -0.01399574987590313, 0.0016805048799142241, 0.005407978314906359, -0.02069137617945671, 0.00890397746115923, -0.028207164257764816, 0.006223964039236307, -0.07088791579008102, -0.012611594051122665, -0.00852133333683014, -0.023898323997855186, 0.009130368940532207, 0.02611527033150196, 0.009670160710811615, -0.024108808487653732, -0.04783651605248451, -0.02824217826128006, -0.021145008504390717, 0.019521020352840424, 0.02651594579219818, 0.0002961650025099516, 0.027528783306479454, 0.012148738838732243, 0.006532327271997929, 0.017723990604281425, 0.05035299062728882, -0.024346476420760155, -0.023426348343491554, 0.01524893008172512, 0.028326494619250298, -0.022027399390935898 };
static float LAYER_1_BS[] = { 0.01195673830807209, 0.002777503803372383, -0.006793704815208912, 0.0015706985723227262, -0.010380861349403858, -0.0032899980433285236, 0.015122494660317898, 0.0004883301444351673, 0.02499552257359028, 0.0020528207533061504, 0.002249571494758129, 0.007152491714805365, -0.007118097972124815, -0.0020099864341318607, 0.0038333002012223005, 0.008059421554207802, -0.008520222268998623, -0.005756700877100229, 0.0019001211039721966, 0.0007203610730357468, -0.0028397557325661182, -0.009093369357287884, 0.011889481917023659, -0.0022531896829605103, -0.00118895317427814, -0.010898225009441376, 0.0009519604500383139, 0.005422324873507023, 0.0008304764633066952, -0.004255710169672966, 0.00180340139195323, -0.00027710467111319304 };
static float LAYER_2_BS[] = { 0.0014326917007565498 };

#endif