#ifndef CAR_WT_H
#define CAR_WT_H

// #define LAYER_0_WT { 0.3298620283603668, 0.15275117754936218, 0.36378487944602966, -0.3477862775325775, -0.28792914748191833, 0.26413145661354065, -0.18086428940296173, -0.221110001206398, 0.20462891459465027, 0.07689860463142395, 0.34419628977775574, -0.36118221282958984, -0.29702967405319214, -0.2946670949459076, -0.19346101582050323, -0.2863083481788635, 0.15415450930595398, -0.3147655725479126, 0.2522977292537689, -0.34877732396125793, 0.26310762763023376, -0.20718030631542206, -0.16763025522232056, -0.12649276852607727, -0.32524603605270386, 0.1648724377155304, -0.16225452721118927, -0.28696462512016296, 0.3694937527179718, -0.1914341002702713, 0.059131354093551636, -0.13284000754356384, 0.12233957648277283, 0.013931959867477417, -0.036148786544799805, 0.388176828622818, 0.37842491269111633, 0.33448877930641174, 0.39268240332603455, -0.2092689871788025, 0.2107977569103241, 0.015516459941864014, -0.16534630954265594, -0.0066856443881988525, -0.1636156290769577, 0.2704814374446869, 0.27337852120399475, 0.3037159740924835, -0.3703538775444031, 0.036000221967697144, 0.19288930296897888, 0.19919010996818542, -0.3467005789279938, -0.2360558658838272, -0.20620326697826385, -0.23790182173252106, 0.07544171810150146, 0.08761230111122131, -0.007992655038833618, 0.10189178586006165, 0.13474205136299133, -0.30980706214904785, 0.12731114029884338, -0.21535950899124146, 0.09984809160232544, 0.09825167059898376, -0.230585977435112, 0.05459776520729065, 0.2986566126346588, 0.28541699051856995, 0.31137290596961975, 0.33514776825904846, 0.12806543707847595, 0.012249618768692017, 0.06928896903991699, -0.34954679012298584, -0.10493269562721252, -0.35356661677360535, -0.2835376560688019, -0.31178009510040283, -0.27479448914527893, -0.22947829961776733, -0.28199124336242676, 0.3462378680706024, -0.13257911801338196, -0.21038120985031128, 0.19984713196754456, 0.12505045533180237, 0.04230836033821106, -0.12883904576301575, -0.10147255659103394, -0.26861587166786194, -0.32782384753227234, 0.37028029561042786, -0.2580442428588867, -0.07810792326927185, 0.041751861572265625, -0.005955696105957031, 0.04435458779335022, 0.2698613703250885, -0.2518383264541626, -0.35954779386520386, -0.32205915451049805, 0.20711258053779602, -0.12562772631645203, -0.280178427696228, -0.04811397194862366, 0.05255511403083801, 0.26480332016944885, -0.27032577991485596, 0.3325011432170868, -0.1537562608718872, -0.1108957827091217, 0.1286977231502533, -0.16115310788154602, 0.18440386652946472, 0.14720723032951355, -0.20635977387428284, 0.06108179688453674, -0.310230553150177, 0.19851669669151306, 0.03332027792930603, 0.0957014262676239, 0.1477709710597992, -0.28166279196739197, 0.10824909806251526, 0.35533544421195984, 0.0574851930141449, 0.21199366450309753, -0.06759712100028992, 0.03476116061210632, -0.1933324635028839, -0.04447481036186218, 0.36904576420783997, 0.22494623064994812, -0.24507415294647217, 0.029853343963623047, -0.23957328498363495, -0.30708175897598267, -0.34913307428359985, 0.08796095848083496, -0.13908922672271729, 0.06239128112792969, 0.22188284993171692, 0.3770148456096649, 0.2874871790409088, -0.03846350312232971, 0.31359753012657166, 0.07852789759635925, 0.3950330317020416, -0.0376662015914917, -0.39060714840888977, -0.14506158232688904, 0.3400525152683258, 0.001406848430633545, 0.31992557644844055, -0.018868207931518555, -0.16989031434059143, 0.305337518453598, 0.07849851250648499, -0.25413137674331665, 0.17862972617149353, -0.30506080389022827, 0.34996792674064636, -0.21320421993732452, 0.07198578119277954, 0.17349299788475037, 0.25498244166374207, 0.10422894358634949, -0.17929533123970032, 0.07190448045730591, 0.15770873427391052, -0.09599140286445618, 0.28553274273872375, 0.2734101712703705, -0.08019945025444031, 0.23800119757652283, 0.2868678867816925, -0.05688643455505371, 0.18292227387428284, 0.38758549094200134, 0.2398676574230194, 0.1721099317073822, 0.12209519743919373, -0.3657333254814148, 0.00370103120803833, 0.19516155123710632, 0.2575359642505646, -0.06211662292480469, -0.15668801963329315, 0.2761435806751251, -0.2857590913772583  }

// #define LAYER_0_BS {0.0, 0.0, 0.0, 0.0, 0.0, 0.0, 0.0, 0.0, 0.0, 0.0, 0.0, 0.0, 0.0, 0.0, 0.0, 0.0, 0.0, 0.0, 0.0, 0.0, 0.0, 0.0, 0.0, 0.0, 0.0, 0.0, 0.0, 0.0, 0.0, 0.0, 0.0, 0.0}


// #define LAYER_1_WT {-0.2368970662355423, 0.2515997588634491, -0.17745517194271088, -0.19808167219161987, -0.22798562049865723, -0.15136264264583588, -0.01328250765800476, 0.29263558983802795, 0.27519115805625916, 0.16050317883491516, -0.3385887145996094, 0.04175260663032532, 0.05514669418334961, -0.1933380365371704, 0.08230873942375183, -0.1400727778673172, -0.3495810329914093, -0.15456251800060272, 0.16354593634605408, 0.34439346194267273, 0.21708759665489197, -0.2956168055534363, 0.24068066477775574, -0.16145968437194824, 0.31289371848106384, -0.12810921669006348, -0.1533518135547638, -0.34321215748786926, 0.1892695128917694, -0.2674722373485565, -0.19496002793312073, -0.11469987034797668, -0.14485685527324677, 0.2266789972782135, -0.1871587187051773, -0.17005662620067596, 0.1704978048801422, -0.21356448531150818, -0.027867823839187622, 0.229729562997818, 0.04694932699203491, 0.29158690571784973, -0.03852584958076477, 0.34493401646614075, 0.19106051325798035, 0.2819261848926544, 0.10196855664253235, 0.04762619733810425, -0.2427349090576172, 0.33124199509620667, 0.3278760015964508, 0.1952591836452484, 0.06781277060508728, -0.16016443073749542, -0.11115700006484985, 0.31863489747047424, 0.046354711055755615, -0.06778636574745178, 0.1391034722328186, 0.017538726329803467, -0.11231806874275208, -0.2927904427051544, -0.24518971145153046, -0.17145219445228577, -0.05893251299858093, 0.06011682748794556, 0.12635564804077148, -0.09984016418457031, 0.32540521025657654, -0.24418112635612488, 0.2772735059261322, 0.1969788372516632, 0.050151288509368896, -0.27916815876960754, 0.04602167010307312, 0.1859118640422821, 0.15421482920646667, -0.2836322784423828, -0.1657858043909073, -0.2763214707374573, -0.26261448860168457, 0.019591212272644043, 0.08336594700813293, 0.2792755663394928, -0.28489893674850464, 0.09378507733345032, 0.12468031048774719, -0.34347227215766907, 0.07985657453536987, 0.03411880135536194, 0.0873350203037262, 0.2961956560611725, -0.008637160062789917, 0.07586914300918579, -0.029450207948684692, -0.28574761748313904, 0.1410934031009674, -0.18148517608642578, -0.22582103312015533, 0.35100510716438293, 0.27417007088661194, -0.10576026141643524, 0.31985124945640564, -0.277496874332428, 0.2376931607723236, -0.17495156824588776, -0.12373614311218262, 0.23622223734855652, -0.03245609998703003, -0.13224998116493225, 0.18705680966377258, 0.11405730247497559, -0.06358224153518677, -0.3359297513961792, 0.07687729597091675, 0.14024218916893005, 0.041441887617111206, 0.0661887526512146, 0.06431517004966736, -0.06508517265319824, -0.2347327470779419, 0.12239167094230652, -0.05070188641548157, -0.1430266797542572, 0.24248269200325012, 0.19489213824272156, 0.17774692177772522, -0.3068135380744934, -0.2777775526046753, -0.022926539182662964, -0.3065046966075897, -0.2873891592025757, -0.13345445692539215, 0.12154778838157654, -0.3148993253707886, -0.14215567708015442, 0.06424444913864136, -0.14546015858650208, -0.03507721424102783, -0.3455778658390045, 0.3123621642589569, 0.03139340877532959, -0.28955501317977905, -0.04255169630050659, -0.07826229929924011, 0.023076146841049194, -0.2736879587173462, 0.3029867112636566, 0.1532159149646759, 0.0761694610118866, -0.17676901817321777, -0.007448792457580566, -0.30431896448135376, 0.07539674639701843, -0.2638525068759918, 0.06952646374702454, 0.037232279777526855, 0.03132697939872742, 0.1339857578277588, -0.1935395896434784, -0.0874548852443695, -0.31658586859703064, -0.12186019122600555, 0.2970329225063324, -0.09699472784996033, -0.3268451690673828, -0.09434396028518677, -0.31746479868888855, 0.024259060621261597, -0.21180754899978638, 0.010218769311904907, 0.21986183524131775, 0.008657395839691162, -0.10558383166790009, -0.2508141100406647, -0.3429745137691498, -0.28461647033691406, -0.3372633755207062, 0.16192564368247986, -0.18129070103168488, -0.013900041580200195, -0.2608736455440521, 0.12937000393867493, 0.33475926518440247, 0.019503623247146606, -0.3007112741470337, 0.05634385347366333, -0.06645715236663818, -0.05428960919380188, -0.04476189613342285, -0.3505002558231354, -0.040033191442489624, -0.07546189427375793, 0.06123042106628418, 0.049794554710388184, -0.25786328315734863, 0.304256409406662, -0.2942434251308441, -0.1355663537979126, 0.18485412001609802, -0.16443753242492676, -0.1536061316728592, -0.02179253101348877, -0.2231101542711258, 0.1753513514995575, -0.2600129246711731, -0.23442059755325317, -0.2603941857814789, 0.026470839977264404, 0.1866556704044342, 0.22792425751686096, -0.1643853485584259, -0.1278201788663864, 0.20944461226463318, 0.29635927081108093, 0.16836771368980408, 0.14336687326431274, -0.25310438871383667, -0.16251663863658905, 0.20130446553230286, -0.050505757331848145, 0.10259225964546204, 0.07755282521247864, -0.24409744143486023, 0.20952048897743225, -0.26077064871788025, 0.10422173142433167, 0.13700371980667114, -0.23591141402721405, -0.11846795678138733, 0.1197613775730133, 0.010333061218261719, -0.26365602016448975, -0.29796716570854187, -0.06319928169250488, 0.20570221543312073, -0.006645798683166504, -0.0026484131813049316, 0.10822322964668274, -0.08332473039627075, -0.1961226910352707, 0.06318226456642151, -0.16396278142929077, -0.026758283376693726, 0.2186250388622284, 0.15253326296806335, 0.197630375623703, 0.2248106300830841, -0.22647440433502197, -0.26206403970718384, 0.3100440204143524, 0.08592411875724792, 0.13311079144477844, 0.3194105327129364, 0.08173638582229614, 0.3526361882686615, -0.32524123787879944, 0.14998874068260193, 0.32563284039497375, 0.06472718715667725, -0.282709002494812, 0.09921476244926453, -0.24956363439559937, -0.22632849216461182, 0.2472865879535675, -0.31885582208633423, -0.25822243094444275, 0.2552504241466522, 0.091036856174469, 0.260113388299942, -0.29559633135795593, 0.01559668779373169, 0.0299147367477417, 0.11581641435623169, -0.010969221591949463, -0.15223239362239838, -0.2232763022184372, -0.006508499383926392, -0.027997642755508423, 0.14058586955070496, 0.25067636370658875, -0.0478971004486084, -0.2478606402873993, 0.08719220757484436, -0.13804997503757477, 0.29681721329689026, -0.31185945868492126, 0.1252458393573761, -0.06915438175201416, 0.2943168580532074, 0.05691772699356079, -0.1601601243019104, -0.29954633116722107, 0.1467415988445282, 0.2790016829967499, 0.26835986971855164, -0.06000801920890808, -0.05948200821876526, 0.17743441462516785, -0.25217512249946594, -0.061910778284072876, -0.04821127653121948, 0.08969059586524963, -0.05414378643035889, -0.3342820703983307, 0.08873167634010315, -0.24763423204421997, 0.23354670405387878, 0.09439384937286377, -0.2093801498413086, -0.22835710644721985, -0.20634101331233978, 0.05406242609024048, 0.3323534429073334, -0.13268856704235077, 0.3375854790210724, 0.14629894495010376, 0.09918317198753357, -0.10041385889053345, -0.23769128322601318, 0.27493634819984436, -0.1205170601606369, 0.23865464329719543, 0.27113690972328186, -0.2653735876083374, -0.24659067392349243, 0.05712667107582092, -0.21083016693592072, 0.2875933349132538, 0.1720622479915619, -0.29839006066322327, -0.04499673843383789, -0.12647248804569244, -0.28672534227371216, 0.34995749592781067, -0.20765313506126404, -0.09646940231323242, 0.2266615927219391, 0.208491712808609, -0.14898353815078735, -0.2953449487686157, -0.32289037108421326, 0.2735197842121124, 0.09523981809616089, 0.1212528645992279, 0.24490901827812195, 0.0323830246925354, 0.19747397303581238, -0.346375435590744, -0.19739586114883423, 0.3303878605365753, -0.3480740487575531, 0.1264342963695526, -0.1419777274131775, 0.34865590929985046, 0.28204765915870667, 0.12560173869132996, 0.30551913380622864, 0.16379055380821228, 0.2914485037326813, -0.19103269279003143, -0.0363064706325531, -0.04261493682861328, -0.010530292987823486, 0.020876437425613403, 0.31126460433006287, -0.2743265926837921, 0.3416132628917694, 0.10273438692092896, 0.32181957364082336, 0.12506511807441711, 0.1379808485507965, 0.15054044127464294, -0.01039096713066101, 0.19083359837532043, -0.13421495258808136, -0.050181299448013306, -0.021663308143615723, -0.2862837314605713, -0.15099462866783142, 0.0953378677368164, -0.32277917861938477, -0.087378591299057, -0.04014831781387329, -0.3326146602630615, 0.21487340331077576, -0.19004864990711212, 0.21537116169929504, -0.13827133178710938, 0.28926602005958557, -0.16604939103126526, 0.2773168981075287, 0.25572720170021057, 0.16377416253089905, -0.12653158605098724, 0.03942990303039551, -0.17256386578083038, 0.08103370666503906, -0.08385241031646729, 0.017502248287200928, -0.0729546844959259, 0.11412093043327332, 0.0336223840713501, -0.14019036293029785, -0.10177874565124512, -0.05037391185760498, -0.2948245406150818, 0.29897817969322205, -0.057811737060546875, -0.32954105734825134, 0.2909749448299408, 0.2959735691547394, 0.10928577184677124, 0.1801261603832245, 0.3319183886051178, -0.16052865982055664, -0.0029104948043823242, 0.22251412272453308, 0.2028152048587799, 0.12470874190330505, 0.07048824429512024, -0.3003181219100952, -0.282034307718277, 0.23984691500663757, 0.0631026029586792, 0.14425677061080933, -0.16854482889175415, -0.3012140691280365, 0.019379794597625732, -0.33061033487319946, -0.13830597698688507, 0.09130525588989258, 0.05802837014198303, -0.1503252536058426, 0.04223325848579407, -0.0683070719242096, 0.19000187516212463, 0.33351102471351624, -0.017296403646469116, -0.08157211542129517, 0.16701087355613708, -0.10055023431777954, -0.12890756130218506, -0.003704279661178589, -0.03781744837760925, -0.03990471363067627, 0.15360620617866516, -0.19074895977973938, -0.2802758812904358, 0.28050151467323303, -0.23942233622074127, 0.14991143345832825, 0.143711656332016, -0.18837153911590576, -0.08114448189735413, 0.0643242597579956, -0.13132156431674957, 0.08219611644744873, -0.08648979663848877, 0.2022131383419037, 0.14155930280685425, -0.12588302791118622, 0.3169648349285126, 0.01175585389137268, -0.3165622651576996, -0.2864660620689392, 0.3023446500301361, -0.02338474988937378, -0.0889870822429657, -0.22097903490066528, 0.010560393333435059, 0.31539538502693176, -0.06023889780044556, -0.0808570384979248, 0.1626853048801422, -0.020017147064208984, -0.17229244112968445, -0.20969168841838837, -0.2244485765695572, 0.2820662558078766, -0.21105261147022247, 0.2485712468624115, -0.04575645923614502, -0.2642393112182617, -0.3050488531589508, 0.34535059332847595, -0.30266332626342773, -0.07590258121490479, 0.08626759052276611, 0.12737435102462769, -0.10193973779678345, 0.34882113337516785, -0.12094509601593018, 0.13874953985214233, 0.020349770784378052, 0.3215806782245636, -0.24444438517093658, -0.09443473815917969, -0.3222196400165558, 0.002745687961578369, 0.19053933024406433, 0.12306001782417297, 0.05161529779434204, -0.13374114036560059, -0.07308828830718994, 0.1786782443523407, -0.2321898490190506, 0.03625673055648804, -0.2307271957397461, -0.016596674919128418, 0.09509584307670593, 0.0827445387840271}

// #define LAYER_1_BS {0.0, 0.0, 0.0, 0.0, 0.0, 0.0, 0.0, 0.0, 0.0, 0.0, 0.0, 0.0, 0.0, 0.0, 0.0, 0.0}

// #define LAYER_2_WT{ -0.16155847907066345, 0.4517582058906555, -0.2593475580215454, 0.08680814504623413, -0.5360298156738281, 0.05587446689605713, -0.0956721305847168, -0.4277494549751282, -0.202070951461792, -0.05133318901062012, 0.4598740339279175, 0.5051376819610596, -0.45639678835868835, 0.2042914628982544, -0.3044224977493286, -0.10604128241539001, 0.5311099290847778, -0.513035237789154, 0.4932821989059448, -0.08501920104026794, -0.17030209302902222, 0.23999124765396118, 0.0764579176902771, -0.3473576307296753, 0.25553858280181885, -0.5348793268203735, -0.5238948464393616, 0.2297043800354004, 0.428622841835022, -0.40544477105140686, -0.09167003631591797, -0.0850854218006134, 0.06523418426513672, -0.08808058500289917, 0.059489548206329346, -0.2061818540096283, -0.08320051431655884, 0.1777781844139099, -0.41847479343414307, 0.32624322175979614, -0.480127215385437, 0.5176373720169067, -0.09647563099861145, 0.3867359161376953, 0.5309635400772095, 0.05028468370437622, 0.09089761972427368, -0.44251054525375366, -0.1285649538040161, -0.05807137489318848, -0.49853819608688354, 0.3020271062850952, -0.43919020891189575, -0.3346050977706909, -0.07569646835327148, 0.037085890769958496, -0.5257230401039124, -0.1368694007396698, -0.49141231179237366, -0.30838674306869507, -0.4703347682952881, 0.16621172428131104, 0.26726818084716797, -0.5197511911392212}

// #define LAYER_2_BS { 0.0, 0.0, 0.1, 0.0 }



// #define LAYER_0_WT { 1.7199517488479614, -0.40106773376464844, -0.09452713280916214, -0.5701419115066528, -0.038012973964214325, 0.0900602862238884, 0.31793898344039917, -0.09291093051433563, 0.3121550679206848, -0.10418754816055298, -0.2834838628768921, -0.07573509216308594, 0.6794005036354065, -0.009446075186133385, -2.5881588459014893, -0.19722920656204224, 0.5231496691703796, 0.10619411617517471, 0.9500842094421387, -0.21647225320339203, -0.13088452816009521, 0.07472721487283707, -0.2981717586517334, 0.03060506097972393, 0.003934058826416731, -0.094333216547966, -0.19672131538391113, -0.43809735774993896, 0.3722193241119385, 0.9011973738670349, -0.5490344166755676, -0.9999233484268188, -0.3420809805393219, -0.308334618806839, -0.18798601627349854, -0.648052453994751, -0.2909453809261322, 0.10291148722171783, 0.32007819414138794, -0.15097272396087646, -0.3846896290779114, -1.224793791770935, -0.14498987793922424, -0.30291691422462463, 0.47588855028152466, 0.42010778188705444, 0.36637505888938904, 0.24137285351753235, 1.4650508165359497, -0.02912154234945774, -1.6786251068115234, -0.04566837102174759, -0.3198844790458679, -0.22743503749370575, 0.3678491711616516, 1.2501640319824219, -0.22597157955169678, -0.2539721727371216, -0.6089504957199097, -0.08690726011991501, -1.5255993604660034, 0.2866927981376648, -0.5258291363716125, 0.19830533862113953, -0.34180790185928345, -0.14065873622894287, 0.14693953096866608, -0.24317142367362976, 0.14906157553195953, 0.19901256263256073, 0.14216017723083496, -0.38855311274528503, 0.6006383299827576, -0.11755120009183884, -0.14728429913520813, 0.22887976467609406, 0.24107293784618378, -0.2787882089614868, -0.05549846589565277, -0.5351167321205139, 0.06675373762845993, -0.4685368835926056, 0.06331373006105423, -0.26994144916534424, 0.1858278214931488, -0.010058742016553879, 0.11593065410852432, -0.22409607470035553, -0.35576131939888, 0.6268706321716309, -0.22598177194595337, 0.5161171555519104, 0.05673213303089142, 0.2919459939002991, -0.24051058292388916, 0.08624914288520813, 0.4955492615699768, -0.2832864224910736, -0.10285986959934235, 0.05662868916988373, -0.18928954005241394, 0.008973871357738972, -2.198486804962158, 0.10611763596534729, -0.36471277475357056, -0.13378813862800598, -0.2130826711654663, -0.2416507750749588, 0.2216263711452484, -0.1715778410434723, 0.3043663203716278, -0.24101762473583221, -0.05217703804373741, -0.22771590948104858, -0.4970942437648773, 0.05027475208044052, -0.3362802267074585, -0.3410283625125885, 0.417707234621048, -0.3302697241306305, -0.1763201802968979, -0.030749863013625145, 0.2736908495426178, 0.3699232339859009, 0.0683915838599205, -0.5365844964981079, 0.14455929398536682, -1.9662108421325684, 0.2388983964920044, 0.18683171272277832, 0.27380144596099854, 0.24908027052879333, -0.4077165722846985, -0.10894045233726501, 0.01894441619515419, -0.12207819521427155, -0.6379768252372742, 0.1738465130329132, -0.06213176250457764, -0.5338440537452698, -0.4665718674659729, 0.02538433112204075, 0.16054753959178925, 0.9515712857246399, -0.01581989787518978, -0.4551977217197418, 0.06674443185329437, 0.3043113648891449, -0.22620262205600739, 0.10452822595834732, 0.07501643151044846, 0.156337171792984, -0.25442156195640564, 0.33349868655204773, 0.4733884930610657, -0.5058858394622803, -0.20740562677383423, -0.19412247836589813, 0.6837332248687744, -0.15180805325508118, -0.1047658622264862, 0.10924840718507767, -0.26353132724761963, 0.21143889427185059, 2.040477991104126, -1.0516239404678345, 0.06903664022684097, 0.3060043454170227, -0.5206801295280457, 0.09598937630653381, 0.06137929484248161, 2.2348196506500244, -0.5738400816917419, 0.07659696042537689, 0.0751076266169548, -0.005869018845260143, 0.07321573793888092, 0.407926470041275, 0.0824681967496872, -0.11927679181098938, 0.07141720503568649, -2.828155517578125, 0.08928285539150238, 0.11967147886753082, -0.2935759127140045, 0.3169029653072357, 0.17214898765087128, 0.3715265691280365, -0.11033282428979874, 0.003696015803143382, 0.35143372416496277, 0.17076724767684937}

// #define LAYER_0_BS { -1.0261292457580566, -0.1137918084859848, -0.04846195876598358, 0.213057741522789, -0.691234827041626, 0.27180564403533936, 0.6085930466651917, -0.05855414271354675, 0.5817331075668335, 0.5153462886810303, -0.00602806406095624, -0.6963964700698853, 0.1259331852197647, -0.10049573332071304, 0.3055541515350342, 0.1572631597518921, -0.923557460308075, -0.08147534728050232, 0.17848622798919678, -0.037642695009708405, -0.15768711268901825, 1.5684077739715576, -0.24397720396518707, -0.25249722599983215, -0.004035016056150198, -0.15763673186302185, 0.245833158493042, 0.23245568573474884, 0.31057208776474, -0.35693204402923584, 0.14562243223190308, 1.2726620435714722}

// #define LAYER_1_WT { 0.18486759066581726, 0.14599579572677612, 0.7404219508171082, 0.4720832109451294, 1.1574381589889526, -0.46748819947242737, 0.31576159596443176, -0.30539458990097046, -0.21212859451770782, -0.128334641456604, -0.006977320183068514, 0.04301745817065239, 0.1631195992231369, -0.0975419357419014, 0.0570378415286541, -0.11372533440589905, -0.2515762746334076, 0.20872360467910767, 0.01714949868619442, 0.0414014533162117, -0.147127166390419, -0.08628270775079727, -0.0953710675239563, -0.1497521996498108, -0.2896166145801544, 0.2605029344558716, -0.08267770707607269, -0.15579397976398468, -0.24945150315761566, -0.3327922821044922, -0.3300699293613434, 0.3201211988925934, 0.20299407839775085, 0.26124581694602966, 0.20119324326515198, -0.09655052423477173, -0.26084181666374207, -0.29914405941963196, 0.1418026238679886, 0.2809889316558838, -0.2987132966518402, 0.2610286772251129, -0.16311058402061462, -0.16472750902175903, -0.07888001203536987, -0.09748581051826477, 0.08380091190338135, -0.13376441597938538, 0.07367072254419327, 0.2820481061935425, -0.20389904081821442, 0.2974433898925781, 0.6393154859542847, 0.21084055304527283, 0.19196206331253052, -0.36299577355384827, 0.21296770870685577, -0.05872683599591255, -0.1875879317522049, 0.02888508327305317, -0.13121165335178375, -0.11038699746131897, 0.23074065148830414, 0.0958479642868042, 0.29633617401123047, 0.3177538514137268, 0.006628409028053284, -0.6766728162765503, -0.6035925149917603, 0.17850910127162933, -0.06211990863084793, 0.7455354332923889, 0.10815096646547318, -0.18531015515327454, -0.13755887746810913, -0.40262940526008606, -0.49147820472717285, 0.11505573987960815, -0.3947918117046356, -0.011577381752431393, -0.3483618199825287, 0.006912983488291502, 0.3132559061050415, -0.7189181447029114, -0.13144327700138092, 0.23429055511951447, 0.19079099595546722, -0.2051820307970047, -0.07877014577388763, -0.08642182499170303, -0.18334273993968964, -0.15828527510166168, 0.19559241831302643, 0.43116259574890137, -0.032437339425086975, 0.12850463390350342, -0.12185574322938919, -0.3636857271194458, -0.10157403349876404, 1.2316417694091797, 1.3881008625030518, -0.12301477789878845, 0.2587473392486572, -0.5075089335441589, 0.01761077716946602, 0.18370014429092407, 0.24131599068641663, 0.6079997420310974, -0.04306469485163689, -0.24054330587387085, -0.07549409568309784, 0.05890854820609093, -0.2798837125301361, 0.15267157554626465, -0.37582072615623474, 0.2770458459854126, -0.10173112154006958, 0.14648625254631042, 0.014064742252230644, -0.29954832792282104, -0.23687192797660828, 0.29657962918281555, 0.12088557332754135, -0.2704751491546631, -0.12153302133083344, -0.3076183795928955, 0.05191856995224953, -0.0744110569357872, -0.05295959487557411, -0.34067782759666443, 0.030144548043608665, 0.8245768547058105, 0.23204611241817474, 0.5462220907211304, 0.07477889955043793, -0.5472193360328674, 0.302367240190506, -0.2605031132698059, -0.26630643010139465, 0.01805000752210617, 0.509144127368927, 0.39760223031044006, 0.40046268701553345, 0.0039299544878304005, 0.05581387132406235, 0.047580935060977936, 0.10948289185762405, 0.4573894739151001, 0.8765462040901184, 0.14788362383842468, -0.00950380228459835, -0.13288231194019318, 0.08812741935253143, 0.29255494475364685, -0.14871260523796082, 0.031747106462717056, 0.3899327218532562, -0.04557987302541733, 0.3299867510795593, -0.27429112792015076, -0.31771886348724365, 0.015185696072876453, -0.22221103310585022, -0.11553726345300674, -0.14450426399707794, 0.30191320180892944, 0.1827922761440277, -0.174412801861763, -0.35217130184173584, 0.11350294947624207, 0.1076996922492981, 0.20432937145233154, 0.2269691526889801, 0.3183654844760895, 0.1462666243314743, -0.16889961063861847, -0.2380744367837906, 0.3666740655899048, 0.3109443485736847, -0.8645741939544678, -0.38887807726860046, 0.19627396762371063, -0.5915721654891968, 0.8987985253334045, 0.08844389021396637, -0.2695240378379822, 0.20100590586662292, -0.3689626157283783, -0.2772105038166046, -0.28451651334762573, -0.2785850763320923, -0.05638907477259636, -0.44050949811935425, -0.012041149660944939, -0.2240394502878189, 0.19864363968372345, 0.09452231228351593, 0.4154265224933624, 0.3463333249092102, -0.5986121296882629, -0.3168681561946869, 0.08565814793109894, -0.3092067241668701, 0.23907597362995148, 0.5422540903091431, 0.10671087354421616, 0.12153017520904541, 0.2751197814941406, 0.00035123294219374657, -0.02330135740339756, -0.16313882172107697, 0.060758646577596664, 0.09708953648805618, -0.07695221155881882, 0.043012361973524094, 0.03999721258878708, -0.28161779046058655, 0.2587105929851532, 0.034918125718832016, 0.15234622359275818, -0.19878768920898438, -0.19619214534759521, 0.17160606384277344, -0.06422141939401627, 0.36442050337791443, 0.2289186716079712, 0.6109535098075867, 0.36094701290130615, 1.86049222946167, -0.1726076453924179, 0.44873544573783875, -0.10041505098342896, -0.25798535346984863, 0.31040701270103455, -0.02062632143497467, 0.5750619769096375, 0.20397476851940155, 0.01558600552380085, 0.7300793528556824, 0.015797417610883713, 0.011104580946266651, -0.4094015955924988, 0.5429366230964661, 0.1264411062002182, 0.34999436140060425, -0.050733037292957306, -0.12063884735107422, 0.2496962994337082, -0.22373560070991516, -0.11777260154485703, 0.23477821052074432, 0.43778860569000244, -0.635320246219635, 0.009140207432210445, 0.2580164074897766, 0.09768269956111908, -0.3507750332355499, -0.16393877565860748, 0.5292121171951294, -0.3418717384338379, 0.8048751354217529, -0.419608473777771, 0.9442175030708313, 0.102147676050663, 0.13534121215343475, -0.16522972285747528, 0.04789188504219055, 0.6942134499549866, 0.3406587541103363, -0.1834605187177658, 0.16589562594890594, 0.10969351977109909, -0.22083847224712372, -0.25204187631607056, -0.32512417435646057, -0.008308745920658112, -0.34258314967155457, 0.3721802532672882, 0.2775508165359497, 0.2965322434902191, 0.22279807925224304, 0.031000332906842232, 0.021207986399531364, -0.2146092653274536, 0.29864782094955444, 0.270799458026886, 0.14804574847221375, 0.1707310974597931, 0.050206348299980164, -0.28928717970848083, 0.6269153356552124, 0.6661283373832703, 1.2376195192337036, -0.3117680847644806, 0.52397221326828, 0.24067914485931396, -0.3137594759464264, -0.18185201287269592, 0.1017412468791008, 0.006077916361391544, 0.3537987172603607, -0.20848441123962402, -0.16759362816810608, 0.04332331195473671, 0.29758650064468384, -0.17488166689872742, -0.16782088577747345, -0.03748778998851776, -0.10986537486314774, -0.10612418502569199, -0.2723427712917328, -0.31403660774230957, -0.2452920377254486, -0.25450369715690613, 0.2773432433605194, 0.12236055731773376, 0.3486841022968292, -0.2901894152164459, -0.08762526512145996, -0.02755657397210598, 0.27954351902008057, 0.3330700397491455, 0.17809772491455078, -0.1995951384305954, 0.030832568183541298, 0.27798378467559814, 0.1266687512397766, 0.15733256936073303, -0.0670841708779335, 0.3442308306694031, 0.2047574818134308, 0.3008042275905609, 0.30867302417755127, -0.21911965310573578, -0.24411921203136444, -0.2246931940317154, 0.1404283344745636, -0.321528822183609, -0.21879161894321442, -1.3336904048919678, -0.9487041234970093, 0.9769154191017151, -0.49941402673721313, 0.43990546464920044, 0.20086051523685455, -0.2679932713508606, 0.2312852293252945, -0.6512612104415894, -0.051810137927532196, 0.7457488179206848, -0.8724818229675293, -0.32704049348831177, -0.21202601492404938, -0.1737627536058426, 0.4123154878616333, -0.08928711712360382, 0.14688128232955933, 0.04117177054286003, 0.09902720898389816, 0.07920154184103012, 0.2928285002708435, -0.03612753003835678, -0.03160770237445831, 0.43428120017051697, 0.16741007566452026, -0.09409917145967484, 0.24484068155288696, -0.3211437463760376, 0.02696172706782818, 0.16445192694664001, 0.4862757921218872, -0.2032535970211029, 0.6330010890960693, -0.25932496786117554, 0.48606249690055847, 0.5417580604553223, -0.08567656576633453, 0.23086920380592346, -0.2830992043018341, 0.5240936875343323, 0.29689645767211914, 0.06528285145759583, 0.24884867668151855, 0.07150114327669144, 0.34810373187065125, -0.09441804885864258, -0.02466253563761711, -0.0658230260014534, 0.13897636532783508, 0.20041455328464508, -0.3228000998497009, 0.32870879769325256, -0.0014015436172485352, 0.3493986427783966, -0.06583288311958313, 0.2561495006084442, -0.20102620124816895, -0.08626337349414825, -0.32496941089630127, -0.004245781805366278, 0.2974538505077362, 0.20397859811782837, 0.31016185879707336, -0.09099496155977249, 0.43753644824028015, 0.535654604434967, -0.01632632501423359, 0.38210180401802063, -0.300637811422348, -0.27118510007858276, -0.15100470185279846, -0.14511288702487946, -0.23939567804336548, -0.026375379413366318, -0.2042897790670395, 0.19746659696102142, 0.36334937810897827, 0.16405896842479706, 0.24157850444316864, 0.44254985451698303, 0.081025131046772, -0.24855178594589233, -0.36535412073135376, 0.4823780059814453, -0.10226495563983917, 0.1303522288799286, -0.23143798112869263, 0.4167710542678833, -0.2447820007801056, 0.18063615262508392, -0.3436146676540375, 0.22295986115932465, 0.18167150020599365, 0.3193809390068054, -0.07895615696907043, -0.12756897509098053, 0.20290279388427734, 0.47530192136764526, 0.1507800668478012, 0.40539437532424927, -0.024736573919653893, 0.08481910079717636, 0.04388441890478134, -0.01981797069311142, 0.49852320551872253, -0.38535821437835693, 0.47570180892944336, -0.140085831284523, 0.3744165897369385, -0.30538734793663025, -0.08925941586494446, 0.4017263352870941, 1.0973539352416992, -0.15907174348831177, 0.24505241215229034, -0.4894750416278839, -0.03130868449807167, 0.17663051187992096, 0.2802235186100006, -0.2743834853172302, 0.43414628505706787, 0.045045796781778336, 0.2209651917219162, -0.24321027100086212, -0.09341321885585785, 0.038019340485334396, 0.33372607827186584, 0.2840690314769745, 0.6914918422698975, -0.16234707832336426, 0.3389909267425537, -0.06879668682813644, 0.07521054893732071, 0.28918346762657166, -0.18921521306037903, 0.32992732524871826, -0.13839185237884521, -0.044314827769994736, -0.2334224432706833, 0.19186879694461823, -0.11216787248849869, -0.02344898134469986, 0.36084797978401184, 0.24317574501037598, 0.6742557883262634, -0.07544061541557312, -0.46429717540740967, 0.48938149213790894, -0.24567247927188873, -0.06512371450662613, -0.11660024523735046, -0.034228499978780746, -0.5783036947250366, 0.013478800654411316, 0.07600878924131393, 0.05816870182752609, -0.24651630222797394, 0.21674077212810516, -0.15504321455955505, 1.4095642566680908, 1.3399128913879395, -0.48468518257141113, 0.46097531914711, 0.05671818181872368, 0.21106024086475372, -0.08396264910697937, -0.29341498017311096, 0.2738218605518341, -0.1712629348039627, -0.24173100292682648, 0.4716555178165436, 0.15904897451400757}

// #define LAYER_1_BS {-0.0849936231970787, 0.03797519952058792, 0.09003984183073044, 0.5692340135574341, 0.29152294993400574, 0.6704286336898804, 0.3251405358314514, 0.20104555785655975, -0.16812317073345184, -0.16544412076473236, -0.15159809589385986, 0.28921636939048767, 0.19019460678100586, 0.3453828990459442, 0.11854188144207001, -0.2657225430011749}

// #define LAYER_2_WT{ 0.44024819135665894, -0.3191778063774109, 0.289793461561203, 0.1147388443350792, 0.27255353331565857, 0.5076143741607666, -0.02514049783349037, -0.33611860871315, 0.6469700932502747, 0.3499731421470642, 0.5695760846138, -1.3409581184387207, -1.0782474279403687, -0.9098324775695801, 2.115781545639038, -0.6527957916259766, 0.8233476281166077, -1.7678894996643066, 2.5335299968719482, -1.8081291913986206, 0.24362550675868988, 0.6227193474769592, -1.142151117324829, 1.0456047058105469, 0.5711220502853394, -1.1965923309326172, 1.2062805891036987, -0.13133889436721802, 0.8446006774902344, 1.1828848123550415, -0.7267622351646423, -0.9137307405471802, 0.18392589688301086, 0.13241985440254211, 0.2343713790178299, -0.28927794098854065, -0.24881896376609802, 0.45004016160964966, -0.41749513149261475, -0.2439347505569458, 0.24040928483009338, 0.1705871969461441, -0.34837034344673157, 0.3788430094718933, -0.034707315266132355, 0.05403148755431175, 1.419466257095337, -0.5441128611564636, 0.5737787485122681, -1.0857781171798706, 0.41788825392723083, 0.7128841280937195, 0.18738441169261932, 0.7407017946243286, -0.5749499201774597, 0.654840886592865, -0.5193950533866882, -0.38425004482269287, 0.8353622555732727, -0.7561050653457642, -0.33212846517562866, 0.23992128670215607, -0.15726278722286224, -0.21031253039836884}

// #define LAYER_2_BS { 0.04086320102214813, 0.2726464867591858, -0.5414790511131287, 0.22796817123889923}

#define LAYER_0_WT { -0.34424668550491333, 0.3998351991176605, -0.51656574010849, 0.29888224601745605, 0.8590577840805054, 0.4363110661506653, -0.42633068561553955, 0.07506375014781952, -0.6166584491729736, 0.10637751966714859, 0.0015185247175395489, -0.420222669839859, 0.3073667585849762, 0.37970298528671265, 0.10543475300073624, 0.55390864610672, -0.2645281255245209, 0.005593703594058752, -0.1297302097082138, -0.12033835798501968, -0.7955342531204224, -0.03502427786588669, 1.0115474462509155, -0.1127701923251152, -0.014286447316408157, 0.5975211262702942, -0.4528064727783203, -0.08386962115764618, 0.3285068869590759, 0.4255204498767853, -0.46972623467445374, 0.23595397174358368, -0.3825696110725403, -0.15983295440673828, -0.039133768528699875, 0.0027891690842807293, -0.34783121943473816, 0.2957884967327118, 0.4066237211227417, -0.32147926092147827, -0.25060349702835083, -0.03595578297972679, 0.40737825632095337, 0.4075506329536438, -0.703561544418335, -0.1991572380065918, -0.5890451073646545, 0.2015606164932251, -0.36402663588523865, 0.31530335545539856, -0.5155079960823059, 0.3379838466644287, 0.6779024004936218, -0.13692434132099152, -1.439586877822876, -0.3069625198841095, 0.236506849527359, -1.1003814935684204, -0.5570120811462402, -0.2360156923532486, -0.2560891807079315, -0.5501697063446045, 0.5476072430610657, -0.20440328121185303, -0.2857351005077362, 0.5293078422546387, -0.33236968517303467, -0.18710236251354218, 0.3794374167919159, -0.5105799436569214, -0.5091175436973572, 0.30763545632362366, 0.42014768719673157, 0.04194089025259018, -0.4997444450855255, 0.031231356784701347, 0.08826763927936554, -0.29206255078315735, 0.028471047058701515, -0.03574890270829201, 0.3492664694786072, -0.19603191316127777, -0.05983803793787956, -0.0016164268599823117, -5.9792728279717267e-05, 0.1371333748102188, -0.05999469384551048, -0.07480131834745407, -0.003162199864163995, 0.271666556596756, 0.012162762694060802, 0.06842456758022308, -0.12706254422664642, 0.11961790919303894, 0.09665358811616898, -0.24635103344917297, -0.001721845124848187, -0.02312002144753933, -0.35360074043273926, 0.4280761778354645, 0.7946840524673462, 0.051766861230134964, 0.13398192822933197, 0.7974705100059509, -0.8236319422721863, -0.3469402492046356, -0.47420671582221985, 0.1469852328300476, 0.38071081042289734, 1.1436322927474976, -0.3048304617404938, -0.13838058710098267, 0.40432557463645935, 0.7066690325737, 0.34333011507987976, -0.4372204542160034, -0.5927136540412903, -0.3969120383262634, -1.2441922426223755, -0.15167641639709473, 0.2785768210887909, -0.2410801351070404, 0.30030104517936707, -0.4374871850013733, 1.0182193517684937, -0.753430962562561, -0.4934707283973694, 0.19349372386932373, -0.2964940369129181, -0.6426018476486206, 0.4795106053352356, 0.15274228155612946, -0.4140298068523407, 0.6598910093307495, -0.04763581231236458, 0.33506688475608826, 0.1452823132276535, 0.3600066006183624, 0.2687772512435913, 0.13390453159809113, -0.3422258198261261, 0.09104033559560776, 0.5967420339584351, 0.11087573319673538, 0.028749924153089523, -0.1642371416091919, 0.4806378483772278, -0.6790850162506104, 0.1537555456161499, -0.25143930315971375, -0.014067567884922028, 0.14923425018787384, 0.5669586658477783, -0.24650995433330536, -0.05228974670171738, 0.4401838779449463, 0.019438954070210457, 0.09060253202915192, -0.49375614523887634, -0.7171062231063843, -1.047127366065979, -1.0143682956695557, -0.14432165026664734, -0.10945925861597061, 0.09416195005178452, 0.3096904158592224, -0.15687046945095062, -0.12866923213005066, 1.0039987564086914, 0.07058275490999222, 0.17026010155677795, -0.8237739205360413, -0.7434618473052979, -0.20621782541275024, -0.9086253643035889, -1.2106133699417114, -0.7340955138206482, -0.7339670062065125, -0.98628830909729, -0.28292036056518555, 0.1128620058298111, -0.043464478105306625, 0.1040106937289238, -0.8852251172065735, -0.18535993993282318, 1.3280010223388672, 1.0222117900848389, 0.34783536195755005, 0.20286688208580017, -0.37380775809288025, 0.7451131939888, 0.7240868806838989  }

#define LAYER_0_BS {-0.2668452560901642, 0.2850576937198639, 0.37143224477767944, 0.023382876068353653, -0.37704306840896606, -0.33736610412597656, -0.09323728829622269, -0.3519926965236664, 0.3053227365016937, 0.41562578082084656, 0.0846828892827034, 0.07993895560503006, 0.21294449269771576, -0.19659225642681122, 0.652881920337677, 0.49611201882362366, -0.05081452056765556, -0.24138642847537994, 0.26676681637763977, 0.24993599951267242, -0.18898166716098785, 0.12222554534673691, -0.019333822652697563, 0.3420989513397217, 0.3099295496940613, -0.34790003299713135, -0.2588615417480469, 0.1441860944032669, -0.08116194605827332, 0.3129391372203827, -0.09765473753213882, -0.5081731677055359}


#define LAYER_1_WT {-0.1226690411567688, -0.06405484676361084, -0.5527829527854919, -0.309815913438797, 0.32538750767707825, 0.1611173450946808, -0.43638598918914795, 0.25449803471565247, -0.18536050617694855, 0.5254215002059937, -0.40373244881629944, 0.19046235084533691, 0.9134154319763184, 0.2218722105026245, -0.0693703442811966, -0.06488878279924393, 0.06856290251016617, 0.06853318214416504, -0.2872146666049957, 0.11121358722448349, 0.38251209259033203, 0.5191870331764221, 0.6764163374900818, 0.3323650658130646, -0.4388647973537445, -0.28880372643470764, -0.30327948927879333, 0.002139176009222865, 0.34569284319877625, 0.21363377571105957, 0.15733502805233002, -0.3217256963253021, -0.31253546476364136, -0.13093531131744385, -0.07314243912696838, 0.2483057975769043, 0.28653684258461, -0.16492675244808197, 0.061488814651966095, -0.4782950282096863, -0.026294438168406487, -0.4457271099090576, -0.1728634089231491, 0.36846980452537537, 0.12391258031129837, -0.4531845152378082, -0.45747852325439453, 0.0981784239411354, -0.10114150494337082, 0.35010355710983276, 0.34994131326675415, -0.11168507486581802, -0.12223918735980988, -0.15369689464569092, 0.32814133167266846, -0.22321397066116333, -0.23907965421676636, -0.1924958974123001, 0.02059653401374817, -0.16575264930725098, -0.2109941840171814, 0.4122892916202545, 0.37175804376602173, 0.11305549740791321, -0.08177267760038376, -0.004796925932168961, -0.08509129285812378, -0.25652554631233215, -0.17964664101600647, -0.059770289808511734, -0.06132331117987633, -0.07848631590604782, -0.485420823097229, 0.6315213441848755, 0.15395422279834747, -0.27764421701431274, -0.010113026946783066, 0.39105871319770813, 0.8192687630653381, 0.37064051628112793, -0.28798794746398926, 0.4384850263595581, 0.3825339376926422, 0.21958047151565552, -0.006139302626252174, -0.3204537630081177, -0.13030773401260376, -0.4538988471031189, 0.651741087436676, -0.21686752140522003, -0.09427198767662048, -0.13555502891540527, -0.1975756734609604, 0.2614435851573944, 0.4321400225162506, 0.22736071050167084, 0.31892749667167664, 0.1425483226776123, 0.16364172101020813, 0.3297947645187378, -0.08063884824514389, 0.3585384488105774, 0.050904057919979095, -0.4074832797050476, 0.2267047017812729, 0.15224727988243103, 0.3194807767868042, -0.21951495110988617, 0.42413440346717834, -0.4997524619102478, 0.1236313208937645, 0.022420784458518028, -0.06629442423582077, -0.08824237436056137, 0.3805043697357178, 0.30128026008605957, -0.2636924684047699, 0.0971103087067604, -0.07200679183006287, 0.23053351044654846, 0.05826340615749359, 0.10985756665468216, 0.3148253858089447, -0.00846089981496334, 0.2828427851200104, 0.5771162509918213, 0.6225717067718506, 0.4347498416900635, -0.382518470287323, -0.2939568758010864, -0.21480901539325714, -0.23576520383358002, 0.047913435846567154, -0.04829894006252289, -0.4745827317237854, -0.1057189330458641, 0.3519795536994934, -0.027921324595808983, 0.10359089076519012, 0.663760244846344, -0.9310939311981201, -0.30023816227912903, -0.5011677145957947, -0.2370298057794571, 0.08779092878103256, -0.20903371274471283, 0.0004678140103351325, -0.14433880150318146, -0.06175345182418823, -0.35964712500572205, 0.29473796486854553, 0.1387409269809723, -0.07496155798435211, -0.4547933340072632, -0.011217313818633556, 0.16420894861221313, -0.4562608301639557, -0.3145613372325897, 0.013032911345362663, -0.08435586094856262, 0.0438401885330677, 0.3779994547367096, -0.27419039607048035, 0.27608639001846313, 0.1798439770936966, -0.15172608196735382, -0.23449371755123138, -0.16946454346179962, 0.382493793964386, -0.1767522692680359, -0.3085644245147705, 0.003176026977598667, -0.17586591839790344, -0.38040778040885925, -0.300243616104126, 0.006024576723575592, 0.40842872858047485, 0.1860256791114807, -0.09249800443649292, -0.0804227665066719, -0.16270282864570618, 0.11170733720064163, 0.1932746320962906, 0.1862199604511261, 0.20353955030441284, -0.2558727562427521, -0.33300432562828064, -0.261472225189209, 0.8529485464096069, -0.3073333203792572, -0.2452012598514557, 0.25301191210746765, -0.3116978108882904, 0.09551636874675751, -0.5002434253692627, 0.19360044598579407, 0.14946351945400238, 0.04701885208487511, 0.6329612731933594, 0.314102441072464, -0.3044585585594177, 0.31201401352882385, 0.009576184675097466, -0.23282556235790253, 0.5879332423210144, -0.08931531012058258, 0.3812682032585144, -0.22213442623615265, -0.18447406589984894, -0.14787739515304565, 0.10086391121149063, 0.26532846689224243, -0.12055256217718124, -0.39791062474250793, 0.3839946687221527, -0.29128724336624146, 0.22453317046165466, -0.022339370101690292, -0.019713852554559708, -0.4999978840351105, 0.22418217360973358, 0.9429415464401245, 0.7208849191665649, 0.5208191275596619, -0.10231620073318481, -0.0974154844880104, -0.05302444100379944, 0.19183458387851715, 0.23356713354587555, 0.37109461426734924, 0.7366523742675781, -0.2084641456604004, 0.17060643434524536, -0.5735729932785034, -0.48570162057876587, 0.349110871553421, 0.7603096961975098, 0.06076962128281593, -0.3399222493171692, -0.10592835396528244, 0.1547452211380005, 0.16578567028045654, -0.11660347878932953, 0.2322193682193756, -0.09699289500713348, 0.22884836792945862, 0.7837567329406738, -0.07463206350803375, -0.26359444856643677, -0.3626589775085449, 0.11742399632930756, -0.18572382628917694, 0.6619684100151062, -0.2552722096443176, -0.13466821610927582, 0.023434709757566452, -0.256859689950943, -0.0958586037158966, -0.2780321538448334, 0.17239193618297577, 0.18246129155158997, 0.31081312894821167, 0.15140822529792786, 0.15352651476860046, 0.12384738773107529, -0.23353515565395355, 0.22380056977272034, 0.016567515209317207, 0.7000936269760132, 0.07235527783632278, 0.42709603905677795, 0.08025097846984863, 0.02557319402694702, 0.4941810667514801, 0.1659633368253708, -0.0004936867626383901, 0.0292731374502182, 0.08927885442972183, 0.20132975280284882, -0.17551685869693756, -0.2769447863101959, 0.09464782476425171, 0.37200435996055603, -0.25543728470802307, 0.8454815149307251, 0.2090160846710205, 0.3231973946094513, 0.35684579610824585, -0.36615943908691406, -0.189525306224823, -0.28812626004219055, -0.053883690387010574, -0.09929780662059784, 0.35161852836608887, 0.5977543592453003, -0.33971312642097473, -0.16917960345745087, -0.5560992360115051, -0.3017538785934448, -0.17623457312583923, 0.6257867217063904, -0.06512454152107239, 0.08497776091098785, 0.3441246449947357, 0.27096301317214966, 0.23077300190925598, -0.33703315258026123, -0.272093266248703, 0.35855403542518616, 0.40065473318099976, 0.19019068777561188, 0.3541710674762726, -0.0739903375506401, 0.28284406661987305, 0.29254278540611267, -0.26189878582954407, 0.052381329238414764, -0.3724377155303955, -0.5331542491912842, -0.11128281056880951, 0.16361954808235168, 0.3776579797267914, 0.21733316779136658, 0.31924840807914734, -0.27958086133003235, 0.1018076241016388, -0.4550536572933197, -0.14122554659843445, 0.015107937157154083, -0.21260398626327515, 0.4374559223651886, 0.3856012523174286, -0.15089407563209534, -0.5638579726219177, -0.6059508919715881, 0.20914897322654724, 0.2092290073633194, 0.02541014365851879, -0.2733239531517029, 0.06990979611873627, -0.0672251507639885, 0.28733253479003906, -0.05502006784081459, 0.39235568046569824, -0.22784173488616943, 0.15979407727718353, -0.35969245433807373, 0.30644896626472473, -0.0511942133307457, -0.023750759661197662, -0.11646214127540588, -0.47997796535491943, 0.006437223870307207, 0.6001396775245667, 0.5972676873207092, -0.008753797970712185, -0.1778419017791748, -0.20772475004196167, 0.08938076347112656, 0.19165493547916412, -0.1847672164440155, -0.40033993124961853, 0.4513559341430664, -0.4572349488735199, -0.5477352738380432, -0.6508506536483765, -0.5652297139167786, -0.875573456287384, -0.16202989220619202, -0.44034725427627563, -0.44731399416923523, 0.12770318984985352, 0.3880217969417572, -0.029257526621222496, 0.5477650165557861, -0.24052010476589203, -0.0039640446193516254, 0.1046471819281578, -0.003269610460847616, -0.10178478062152863, 0.7977099418640137, -0.09439780563116074, -0.18038861453533173, -0.3089703917503357, -0.13251544535160065, -0.018395373597741127, 0.28231748938560486, 0.10424745082855225, -0.2001555860042572, -0.01264710072427988, 0.3307132124900818, -0.19846829771995544, -0.13275723159313202, -0.5860996842384338, 0.30827999114990234, 0.2809383273124695, -0.17876890301704407, 0.07957479357719421, 0.3705161511898041, 0.35017865896224976, -0.2216254621744156, 0.044043123722076416, 0.5926529765129089, -0.449939489364624, -0.28025662899017334, 0.0032484831754118204, -0.5458861589431763, 0.22180253267288208, -0.012290925718843937, 0.8090168833732605, 0.07481568306684494, 0.21550165116786957, -1.0106760263442993, -0.14945779740810394, -0.005770303308963776, 0.06508725136518478, -0.1180267408490181, 0.08710210025310516, 0.09343717992305756, -0.03201519697904587, 0.2537137567996979, -0.05797841399908066, -0.5915957093238831, -0.20850440859794617, -0.14691096544265747, 0.5077957510948181, -0.03944327309727669, 0.2609003484249115, -0.45126035809516907, 0.14932924509048462, 0.20676173269748688, 0.27034637331962585, -0.3419824540615082, -0.03966491296887398, 0.03647410869598389, 0.14984403550624847, -0.1317162662744522, 0.23551328480243683, -0.19965583086013794, -0.21605046093463898, 0.18575328588485718, -0.26767808198928833, 0.24136033654212952, 0.5469777584075928, -0.2720927298069, -0.04381824657320976, -0.20822489261627197, -0.3311825096607208, -0.36311623454093933, -0.08374487608671188, 0.23939149081707, 0.04200442135334015, -0.0003575189912226051, -0.07405044138431549, 0.29211392998695374, 0.19086600840091705, 0.0019349264912307262, -0.12009584903717041, 0.11028490960597992, -0.21821607649326324, -0.23758995532989502, 0.757326066493988, 0.7672250270843506, 0.47384113073349, -0.050425391644239426, -0.3248556852340698, -0.3382783830165863, 0.2248576283454895, 0.11939239501953125, 0.026421595364809036, 0.21240964531898499, -0.04573668912053108, 0.03346845507621765, -0.4531691372394562, 0.2287280410528183, -0.12659181654453278, 0.2140868455171585, -0.4849759042263031, -0.2510403096675873, -0.5264876484870911, -0.06653795391321182, -0.07334574311971664, 0.26185956597328186, -0.2502630650997162, -0.1997179388999939, -0.3091895580291748, -0.48666536808013916, 0.0034978161565959454, -0.27456921339035034, 0.40792858600616455, -0.06139235198497772, -0.19814643263816833, -0.42077767848968506, -0.748357892036438, -0.47934243083000183, -0.0939454436302185, 0.21876977384090424, -0.16813088953495026, 0.2969948947429657, -0.2886369526386261, -0.11710510402917862, 0.30446556210517883, -0.45263671875, -0.18494057655334473, -0.24484340846538544, 0.5478386282920837, -0.3145013749599457, -0.24178563058376312, -0.37759461998939514, 0.2164156138896942, 0.3393983840942383, -0.14404723048210144}

#define LAYER_1_BS {0.04006796330213547, 0.13792619109153748, 0.10156770795583725, 0.3514009416103363, -0.11122550070285797, -0.12885284423828125, 0.6614686250686646, 0.20354151725769043, 0.1417761743068695, -0.9492774605751038, 0.1591808795928955, 0.07570439577102661, -0.5766691565513611, 0.09381253272294998, 0.014241897501051426, -0.03940887004137039}

#define LAYER_2_WT{ -0.12247342616319656, -0.6244804859161377, 0.05207441747188568, -0.00706294272094965, -0.15565606951713562, -0.5228139758110046, 0.39857640862464905, -0.44652724266052246, -0.09064110368490219, -0.21302203834056854, 0.9541566967964172, -1.2329879999160767, -0.4213065505027771, -0.3594820201396942, 0.4755074381828308, -0.544309675693512, -0.1355460286140442, -0.11565318703651428, -0.6966120004653931, 0.44316771626472473, -0.260460764169693, -0.40582844614982605, -0.752061665058136, 0.519359290599823, -1.4446792602539062, -0.5975440740585327, 1.1679967641830444, -0.20745635032653809, 0.4353029727935791, -0.5611505508422852, 0.27602192759513855, 0.6111297607421875, 0.5604114532470703, 0.8302550315856934, 0.49830493330955505, -0.3570235073566437, -0.2131757289171219, 1.11322820186615, -1.92181396484375, 0.6647218465805054, 0.004068033304065466, -0.6802834868431091, 0.37454158067703247, -0.3700036406517029, 0.9890431761741638, 0.40104323625564575, -0.4035596251487732, -0.50901859998703, 1.1425071954727173, 0.8216692209243774, -2.668647527694702, 0.8822091221809387, 0.9879305362701416, 0.31996771693229675, -0.9044472575187683, 0.21487627923488617, 0.5178232789039612, 0.20564670860767365, -1.3529298305511475, 0.22966231405735016, 1.0897217988967896, 0.5304805636405945, -0.2921103239059448, 0.1073862761259079}

#define LAYER_2_BS { -0.008997395634651184, -0.42224839329719543, 1.063395380973816, -0.6321389675140381 }

#endif